data = '{"type":"n","options":{"inputSize":28,"inputRange":28,"hiddenLayers":[20,20],"outputSize":28,"decayRate":0.999,"smoothEps":1e-8,"regc":0.000001,"clipval":5,"maxPredictionLength":100,"dataFormatter":{"values":["no quiero vivir","triste","estoy llorando","la vida es mala","ha muerto mi papa","ha muerto mi mama","ya no ahuanto","me quiero morir","murio","el suicidio es una opcion","me quiero suicidar","se suicido","he terminado mis ejercicios","he terminaod mi rutina de ejercicios","feliz","gane el examen","tengo calificaciones altas","hoy vere a mi novio","hoy es mi cumpleanos","he comprado zapatos nuevos","me gusta comer pizza","tengo novio","ella quiere a su papa","he superado el reto","odio que me reganen","enojado","se quebro mi patineta","me dejo mi mujer","odio comer","no puedo salir a jugar","me reganan","no quiero","no puedo","estoy enojado","no me gusta la politica","por que has","por que has hecho eso"],"indexTable":{"n":0,"o":1," ":2,"q":3,"u":4,"i":5,"e":6,"r":7,"v":8,"t":9,"s":10,"y":11,"l":12,"a":13,"d":14,"m":15,"h":16,"p":17,"c":18,"j":19,"f":20,"z":21,"g":22,"x":23,"b":24,"stop-input":25,"start-output":26,"unrecognized":27},"characterTable":{"0":"n","1":"o","2":" ","3":"q","4":"u","5":"i","6":"e","7":"r","8":"v","9":"t","10":"s","11":"y","12":"l","13":"a","14":"d","15":"m","16":"h","17":"p","18":"c","19":"j","20":"f","21":"z","22":"g","23":"x","24":"b","25":null,"26":null,"27":null},"characters":["n","o"," ","q","u","i","e","r","v","t","s","y","l","a","d","m","h","p","c","j","f","z","g","x","b","stop-input","start-output","unrecognized"],"specialIndexes":[25,26,27]}},"input":{"rows":29,"columns":28,"weights":{"0":0.7694599032402039,"1":-3.337141513824463,"2":1.5863022804260254,"3":-3.2486720085144043,"4":-2.853672504425049,"5":-2.529179334640503,"6":-0.9190053343772888,"7":4.362208366394043,"8":2.1060454845428467,"9":1.8651947975158691,"10":-0.32883962988853455,"11":3.824244976043701,"12":-1.2419185638427734,"13":0.5878660082817078,"14":0.9987576603889465,"15":0.08053641766309738,"16":1.8670628070831299,"17":4.231235980987549,"18":3.0137758255004883,"19":0.08312751352787018,"20":-2.035144805908203,"21":-0.8247899413108826,"22":-1.0895602703094482,"23":0.4249356687068939,"24":1.4798094034194946,"25":-0.018288539722561836,"26":1.0201780796051025,"27":-2.478386640548706,"28":-5.345783710479736,"29":8.425005912780762,"30":1.5187398195266724,"31":0.29361671209335327,"32":-3.953789472579956,"33":-1.5049673318862915,"34":2.0323195457458496,"35":-4.9919633865356445,"36":4.155420303344727,"37":2.6274302005767822,"38":2.1122426986694336,"39":-4.128214359283447,"40":3.744666814804077,"41":-5.79178524017334,"42":-0.988506555557251,"43":6.670455455780029,"44":-2.960919141769409,"45":-1.0145186185836792,"46":1.8459744453430176,"47":-6.705452919006348,"48":-3.346349000930786,"49":-8.015522956848145,"50":0.037488244473934174,"51":-0.5704485774040222,"52":1.8957438468933105,"53":0.1379641443490982,"54":1.5102306604385376,"55":-6.271716117858887,"56":0.6039337515830994,"57":-1.4767664670944214,"58":1.4280349016189575,"59":-4.601532459259033,"60":1.6217265129089355,"61":-0.29015183448791504,"62":1.0605367422103882,"63":0.41700848937034607,"64":8.393171310424805,"65":-0.9257993102073669,"66":-0.0952596664428711,"67":0.8607378005981445,"68":1.2008126974105835,"69":0.05252109840512276,"70":0.066500224173069,"71":-0.667384922504425,"72":0.7135066390037537,"73":-0.23665949702262878,"74":1.5061596632003784,"75":-3.4179697036743164,"76":-0.4797525107860565,"77":-0.37303414940834045,"78":-0.259433388710022,"79":-0.7330436110496521,"80":-0.1686447262763977,"81":-0.3787604868412018,"82":0.2533344328403473,"83":0.11207780241966248,"84":-2.8388912677764893,"85":1.2191146612167358,"86":0.34173932671546936,"87":3.2472524642944336,"88":-0.79732745885849,"89":3.850778341293335,"90":-0.44681406021118164,"91":3.602855920791626,"92":2.4329144954681396,"93":-2.116694688796997,"94":-5.466871738433838,"95":-2.8373758792877197,"96":-1.4774818420410156,"97":-4.712382793426514,"98":1.7266789674758911,"99":2.366015672683716,"100":3.552433490753174,"101":-1.0216455459594727,"102":1.314134955406189,"103":1.3927035331726074,"104":-2.5966708660125732,"105":-1.6964282989501953,"106":-4.229279518127441,"107":1.553789496421814,"108":1.6848151683807373,"109":-8.143730163574219,"110":0.10770203173160553,"111":1.831505298614502,"112":-2.5089588165283203,"113":-4.812986373901367,"114":-10.03032398223877,"115":9.275203704833984,"116":-0.7299279570579529,"117":3.6421899795532227,"118":-2.779062509536743,"119":-12.897233009338379,"120":-7.522875785827637,"121":10.28745174407959,"122":-3.749319076538086,"123":5.644277095794678,"124":-4.456730842590332,"125":-1.5509860515594482,"126":7.3092360496521,"127":5.1210527420043945,"128":5.356597900390625,"129":4.253504753112793,"130":-0.01033730898052454,"131":1.6103368997573853,"132":-2.6795928478240967,"133":3.3940391540527344,"134":2.263712167739868,"135":-0.4773484170436859,"136":0.7872915267944336,"137":-2.6591124534606934,"138":-8.78002643585205,"139":-7.275207042694092,"140":4.18906831741333,"141":1.4658775329589844,"142":0.4446472227573395,"143":3.579157829284668,"144":-5.247385501861572,"145":4.529448509216309,"146":-4.430451393127441,"147":1.1573307514190674,"148":0.34606054425239563,"149":-3.978080987930298,"150":-2.3437466621398926,"151":-4.577728271484375,"152":-0.39496439695358276,"153":0.018091628327965736,"154":-3.754760265350342,"155":0.2794184684753418,"156":-0.1811186969280243,"157":0.8342450857162476,"158":2.568302869796753,"159":0.13639241456985474,"160":-0.147904172539711,"161":1.310001254081726,"162":2.318100929260254,"163":1.9565809965133667,"164":2.4540975093841553,"165":2.865858793258667,"166":3.3267221450805664,"167":4.698808670043945,"168":-4.718262672424316,"169":-0.2659319043159485,"170":-6.027529716491699,"171":-2.857301950454712,"172":-2.7317192554473877,"173":2.897064447402954,"174":5.134130954742432,"175":1.0520814657211304,"176":0.02017028070986271,"177":-1.301947832107544,"178":5.642712116241455,"179":4.4185872077941895,"180":5.025430202484131,"181":1.1389868259429932,"182":1.6485004425048828,"183":1.8929511308670044,"184":-2.9076266288757324,"185":1.3441274166107178,"186":0.8618468642234802,"187":-4.523605823516846,"188":-0.923841655254364,"189":1.4221456050872803,"190":0.326589971780777,"191":-6.481655120849609,"192":-0.8296353816986084,"193":3.90983247756958,"194":-1.1830778121948242,"195":1.4288320541381836,"196":3.516050100326538,"197":-0.4375778138637543,"198":0.3513025939464569,"199":-0.01829409971833229,"200":-1.2086507081985474,"201":-0.7862737774848938,"202":-2.716848134994507,"203":-0.006194708403199911,"204":-3.2934436798095703,"205":0.6757261753082275,"206":-0.03415858745574951,"207":0.1700066477060318,"208":-2.7656853199005127,"209":0.18515555560588837,"210":0.9680739045143127,"211":-0.44193780422210693,"212":2.838562488555908,"213":3.734332323074341,"214":-0.5662413835525513,"215":1.135367751121521,"216":0.012068619951605797,"217":0.02779870294034481,"218":-0.9719780087471008,"219":2.0136706829071045,"220":-0.021975582465529442,"221":-1.5529963970184326,"222":-2.5540430545806885,"223":0.14498618245124817,"224":-0.08164268732070923,"225":3.8711512088775635,"226":-5.445753574371338,"227":5.476159572601318,"228":-1.20430326461792,"229":0.9402319192886353,"230":-0.16410528123378754,"231":-6.462777614593506,"232":1.7844234704971313,"233":1.3222111463546753,"234":4.979404926300049,"235":4.034305095672607,"236":3.502825975418091,"237":-3.995493173599243,"238":-2.441296100616455,"239":2.5150842666625977,"240":-0.5099188089370728,"241":3.0143086910247803,"242":1.376063346862793,"243":-0.2761726379394531,"244":-1.9581210613250732,"245":3.309072256088257,"246":1.2239961624145508,"247":-7.511407375335693,"248":-1.1223602294921875,"249":-0.27387237548828125,"250":-4.437095642089844,"251":-3.27189302444458,"252":-7.580190181732178,"253":1.4780473709106445,"254":6.188564300537109,"255":-0.1689537763595581,"256":4.9134416580200195,"257":-3.352904796600342,"258":4.681580543518066,"259":8.983763694763184,"260":-9.026185035705566,"261":-7.8095269203186035,"262":-7.219711780548096,"263":0.6313721537590027,"264":-9.350584983825684,"265":-5.5595502853393555,"266":-0.5436498522758484,"267":-0.7321825623512268,"268":8.739948272705078,"269":3.604543685913086,"270":4.311251640319824,"271":-1.7849138975143433,"272":8.913419723510742,"273":-3.7008845806121826,"274":-1.7276579141616821,"275":1.006146788597107,"276":8.254475593566895,"277":-8.827638626098633,"278":-1.2636829614639282,"279":-1.6573667526245117,"280":-1.2133980989456177,"281":-0.876646101474762,"282":-1.4522852897644043,"283":-1.0224385261535645,"284":0.6359199285507202,"285":8.671957015991211,"286":-3.6221227645874023,"287":0.1774130016565323,"288":-6.9950127601623535,"289":0.37143418192863464,"290":3.476917028427124,"291":1.4208005666732788,"292":4.48603630065918,"293":1.024889349937439,"294":-0.07891826331615448,"295":-8.97128963470459,"296":0.3188980221748352,"297":-0.025517331436276436,"298":0.3047555983066559,"299":-2.7431087493896484,"300":5.107203483581543,"301":6.516658782958984,"302":-3.22798228263855,"303":-3.603205442428589,"304":0.11196058243513107,"305":1.1262590885162354,"306":-3.0045948028564453,"307":-0.9445272088050842,"308":-3.963540554046631,"309":1.7967373132705688,"310":-0.8811547756195068,"311":-1.1359777450561523,"312":-3.0022499561309814,"313":-2.7121169567108154,"314":10.716167449951172,"315":-4.98655891418457,"316":-0.9413794875144958,"317":1.039022445678711,"318":7.294297218322754,"319":-3.501922845840454,"320":3.9335222244262695,"321":0.3444109857082367,"322":-0.22326917946338654,"323":-1.3453580141067505,"324":0.5601561665534973,"325":-1.4207478761672974,"326":-0.6412719488143921,"327":-5.108658313751221,"328":-4.443535804748535,"329":-0.8725950717926025,"330":1.842583417892456,"331":1.4499119520187378,"332":-0.5882037878036499,"333":7.747912406921387,"334":1.5133881568908691,"335":-1.5807372331619263,"336":-3.958195447921753,"337":1.3838441371917725,"338":2.522749185562134,"339":-0.5637381672859192,"340":5.903813362121582,"341":15.128182411193848,"342":15.125017166137695,"343":7.5830230712890625,"344":-6.83328914642334,"345":-9.416671752929688,"346":-10.167033195495605,"347":2.170649766921997,"348":-3.0104568004608154,"349":-1.0192548036575317,"350":-4.020594596862793,"351":1.7474488019943237,"352":6.378759384155273,"353":0.675746738910675,"354":3.00990629196167,"355":-1.3789414167404175,"356":-1.8076032400131226,"357":-6.386107444763184,"358":-7.816178321838379,"359":-6.06562614440918,"360":3.530205726623535,"361":-0.2964942157268524,"362":-6.574056625366211,"363":4.428471565246582,"364":-7.314545154571533,"365":6.426821708679199,"366":-0.7423884868621826,"367":-0.45122092962265015,"368":-6.3460693359375,"369":3.267911434173584,"370":-1.618545413017273,"371":-6.790910243988037,"372":2.7292840480804443,"373":-1.2089415788650513,"374":2.9323947429656982,"375":-2.1858110427856445,"376":5.855847358703613,"377":-4.266121864318848,"378":-4.073150634765625,"379":1.7824671268463135,"380":-1.0121883153915405,"381":-8.818540573120117,"382":4.020034313201904,"383":-7.850872039794922,"384":-7.229465484619141,"385":-4.2218427658081055,"386":1.860174536705017,"387":-2.180457353591919,"388":-0.36444979906082153,"389":2.3872129917144775,"390":6.60518217086792,"391":-1.5755670070648193,"392":0.7464534640312195,"393":-0.5909371972084045,"394":-1.721204400062561,"395":1.7736327648162842,"396":0.7030237317085266,"397":-5.347287178039551,"398":0.6417510509490967,"399":0.22078989446163177,"400":2.386780023574829,"401":4.769905090332031,"402":3.0284030437469482,"403":1.7482519149780273,"404":-0.8130940198898315,"405":-0.6393251419067383,"406":1.8618218898773193,"407":0.1666422337293625,"408":-0.6998677253723145,"409":-2.4607956409454346,"410":-2.0594356060028076,"411":-0.9125381112098694,"412":-1.2222410440444946,"413":1.3429558277130127,"414":2.119237184524536,"415":-1.265838623046875,"416":-3.86967396736145,"417":0.384394109249115,"418":-0.7633674740791321,"419":-0.22619721293449402,"420":0.8706215620040894,"421":7.504270553588867,"422":4.628103256225586,"423":3.1401383876800537,"424":-1.2188001871109009,"425":-7.417283535003662,"426":-1.7727547883987427,"427":-4.990871906280518,"428":6.385022163391113,"429":2.1209022998809814,"430":-2.2332141399383545,"431":0.25388675928115845,"432":-5.990945339202881,"433":5.428941249847412,"434":-4.328849792480469,"435":3.800727367401123,"436":-0.6776373386383057,"437":-7.709747791290283,"438":-2.4069111347198486,"439":-5.097680568695068,"440":1.947762370109558,"441":0.6945560574531555,"442":3.6393978595733643,"443":2.2474100589752197,"444":7.598381042480469,"445":-8.115323066711426,"446":2.5128190517425537,"447":3.041219472885132,"448":3.629356861114502,"449":-1.2871973514556885,"450":-2.83148193359375,"451":-1.281058669090271,"452":4.850137710571289,"453":0.07812607288360596,"454":-1.006015419960022,"455":0.21988226473331451,"456":4.19829797744751,"457":3.7244906425476074,"458":1.3500031232833862,"459":1.7184431552886963,"460":-1.0050632953643799,"461":-2.9129245281219482,"462":5.26729679107666,"463":-5.478423118591309,"464":3.1625595092773438,"465":6.296716213226318,"466":-2.2170636653900146,"467":10.108243942260742,"468":0.17573149502277374,"469":4.682232856750488,"470":0.5398570895195007,"471":-1.5195586681365967,"472":0.5079858303070068,"473":1.2025442123413086,"474":-5.612814903259277,"475":-7.1116251945495605,"476":-5.0660576820373535,"477":-0.5812662243843079,"478":-3.2761147022247314,"479":6.915428638458252,"480":-3.9480035305023193,"481":0.12694501876831055,"482":-2.094527244567871,"483":3.8788044452667236,"484":-5.177926540374756,"485":-4.040517807006836,"486":-6.467326641082764,"487":-0.49526309967041016,"488":6.198455333709717,"489":5.8485894203186035,"490":-1.5575299263000488,"491":-7.406884670257568,"492":5.588237762451172,"493":0.5057111382484436,"494":-12.442845344543457,"495":10.569914817810059,"496":9.307933807373047,"497":-3.1279547214508057,"498":-6.17153787612915,"499":4.266174793243408,"500":-4.069797515869141,"501":-0.7782561779022217,"502":-4.851644992828369,"503":0.13371571898460388,"504":4.695952892303467,"505":-5.055160999298096,"506":6.297191619873047,"507":2.780728816986084,"508":5.2731218338012695,"509":-2.9359207153320312,"510":-1.8108989000320435,"511":-3.327256679534912,"512":-6.045749187469482,"513":-3.0458860397338867,"514":2.429920196533203,"515":-2.772503614425659,"516":-0.6604686379432678,"517":-2.155733823776245,"518":3.2026047706604004,"519":-1.0692822933197021,"520":1.2494949102401733,"521":9.98505687713623,"522":-0.5575674176216125,"523":3.510847568511963,"524":3.998116970062256,"525":5.592418193817139,"526":3.0695080757141113,"527":5.670272350311279,"528":-3.934647560119629,"529":-4.195621967315674,"530":-0.6016939878463745,"531":5.051774024963379,"532":1.1987135410308838,"533":6.961531162261963,"534":-0.49569639563560486,"535":7.546591758728027,"536":-8.92598819732666,"537":2.5355541706085205,"538":1.4018540382385254,"539":1.1841479539871216,"540":-4.147827625274658,"541":-7.009652614593506,"542":-5.151907444000244,"543":-6.622280120849609,"544":4.088335990905762,"545":-1.7919864654541016,"546":-6.102810859680176,"547":-11.792186737060547,"548":-9.876473426818848,"549":-7.65650749206543,"550":1.6193015575408936,"551":-1.645878791809082,"552":5.421238422393799,"553":8.025968551635742,"554":-0.20645926892757416,"555":5.109414577484131,"556":2.114778995513916,"557":1.4614256620407104,"558":-7.644333839416504,"559":11.044328689575195,"560":-1.2465906143188477,"561":-0.9454531073570251,"562":-8.713605880737305,"563":-4.672961711883545,"564":8.163837432861328,"565":-2.0559258460998535,"566":5.229433059692383,"567":-1.902688980102539,"568":-0.21703940629959106,"569":5.351616859436035,"570":4.044571399688721,"571":-2.8780086040496826,"572":7.102272987365723,"573":3.6143782138824463,"574":-6.727248191833496,"575":10.578999519348145,"576":-1.2190715074539185,"577":-0.9394253492355347,"578":8.848310470581055,"579":-8.561509132385254,"580":-4.546886444091797,"581":0.9954758286476135,"582":2.372077703475952,"583":-2.4474918842315674,"584":-0.01709650084376335,"585":7.152092456817627,"586":1.1053876876831055,"587":-1.2131441831588745,"588":7.986884593963623,"589":0.04822489246726036,"590":-4.442628860473633,"591":-0.975169837474823,"592":-0.025037094950675964,"593":-2.777017831802368,"594":5.941845893859863,"595":-7.044524192810059,"596":0.7826108932495117,"597":3.0926239490509033,"598":3.2021515369415283,"599":-1.7946498394012451,"600":-2.3831541538238525,"601":-2.031438112258911,"602":-6.347692489624023,"603":4.240947246551514,"604":-14.072259902954102,"605":-8.411344528198242,"606":-3.631401777267456,"607":-2.8453280925750732,"608":-5.298454761505127,"609":2.7581021785736084,"610":7.236938953399658,"611":-4.2275309562683105,"612":-2.0334646701812744,"613":3.7855663299560547,"614":6.97473669052124,"615":-1.2325494289398193,"616":-1.6557704210281372,"617":1.0370631217956543,"618":3.8754196166992188,"619":-7.858025550842285,"620":-3.927358388900757,"621":-3.650088310241699,"622":1.0467134714126587,"623":2.539768695831299,"624":5.394401550292969,"625":-0.7090413570404053,"626":-2.715871810913086,"627":0.5594812035560608,"628":-3.424983501434326,"629":-1.8689073324203491,"630":-1.7418296337127686,"631":-0.25065815448760986,"632":-2.937436819076538,"633":1.8599478006362915,"634":8.494485855102539,"635":-4.381536483764648,"636":1.6112401485443115,"637":-0.5507433414459229,"638":2.2166171073913574,"639":-4.0763397216796875,"640":-0.9217449426651001,"641":5.037386417388916,"642":-2.5608396530151367,"643":0.7467570900917053,"644":-0.6583086848258972,"645":-8.7700777053833,"646":7.050142765045166,"647":-6.6225810050964355,"648":-0.8917607069015503,"649":-4.082524299621582,"650":-5.218661785125732,"651":-0.07538338005542755,"652":-0.2386707067489624,"653":-5.176105499267578,"654":0.8996708989143372,"655":-4.302328109741211,"656":4.2434611320495605,"657":6.04374361038208,"658":2.1592397689819336,"659":9.05280876159668,"660":2.5656301975250244,"661":-8.714816093444824,"662":2.4929869174957275,"663":-4.395427703857422,"664":12.349995613098145,"665":-3.2835991382598877,"666":-0.8951460123062134,"667":7.0701212882995605,"668":-10.62136173248291,"669":10.0597562789917,"670":3.8794775009155273,"671":-2.835764169692993,"672":-22.243385314941406,"673":-12.723334312438965,"674":8.538410186767578,"675":-18.334728240966797,"676":27.816333770751953,"677":20.722572326660156,"678":-3.661226511001587,"679":16.57094383239746,"680":-17.798471450805664,"681":17.636402130126953,"682":17.182815551757812,"683":-31.842037200927734,"684":-7.1722822189331055,"685":2.777266263961792,"686":-19.673343658447266,"687":-2.076273202896118,"688":19.368152618408203,"689":-3.924873113632202,"690":-9.57932186126709,"691":-13.93249225616455,"692":2.4468166828155518,"693":2.4837896823883057,"694":6.627157688140869,"695":2.573779582977295,"696":-3.395169258117676,"697":19.309690475463867,"698":2.5766468048095703,"699":23.005884170532227,"700":-26.682937622070312,"701":16.972633361816406,"702":-15.52603530883789,"703":18.225374221801758,"704":7.324289798736572,"705":-3.80130672454834,"706":21.857816696166992,"707":-6.898137092590332,"708":11.273468971252441,"709":9.304102897644043,"710":-27.9340763092041,"711":-21.12059211730957,"712":-5.675985336303711,"713":1.4168442487716675,"714":0.710271954536438,"715":-6.731942653656006,"716":15.19226360321045,"717":15.25698184967041,"718":-3.9032742977142334,"719":11.757850646972656,"720":0.21911542117595673,"721":-2.8307130336761475,"722":22.62035369873047,"723":-18.017498016357422,"724":21.99192237854004,"725":-7.259345054626465,"726":-3.0696914196014404,"727":-17.553930282592773,"728":-3.1930956840515137,"729":-3.8633158206939697,"730":2.1506638526916504,"731":-4.729071140289307,"732":3.443476438522339,"733":-7.186147689819336,"734":-3.349869728088379,"735":-1.2402582168579102,"736":0.747835099697113,"737":4.991150379180908,"738":-1.0242455005645752,"739":-1.5774195194244385,"740":-0.7266803979873657,"741":1.2162243127822876,"742":-0.6544432044029236,"743":2.6728475093841553,"744":5.191061019897461,"745":0.4236350655555725,"746":-3.2855639457702637,"747":-0.8791074156761169,"748":-8.83045768737793,"749":-2.480573892593384,"750":6.380997657775879,"751":0.8251291513442993,"752":-0.5375000834465027,"753":-0.01908610388636589,"754":-5.21794319152832,"755":-7.129239082336426,"756":-0.05120258778333664,"757":-3.856600522994995,"758":0.6181142330169678,"759":2.793956995010376,"760":-1.7325565814971924,"761":2.4046566486358643,"762":-1.8131405115127563,"763":-2.141970157623291,"764":-2.999760150909424,"765":-2.0587382316589355,"766":3.1885170936584473,"767":4.642944812774658,"768":0.20075669884681702,"769":-1.3433033227920532,"770":2.3991036415100098,"771":-2.780710458755493,"772":2.0023508071899414,"773":2.251929998397827,"774":-1.3834768533706665,"775":-0.1966840624809265,"776":4.311980724334717,"777":2.559144973754883,"778":2.2711586952209473,"779":-0.7468177676200867,"780":-2.7460525035858154,"781":1.6946032047271729,"782":-2.128472089767456,"783":0.28118565678596497,"784":-0.009917868301272392,"785":-0.0023457305505871773,"786":-0.0014836298068985343,"787":-0.0041461787186563015,"788":-0.010510074906051159,"789":-0.01270210463553667,"790":-0.011085309088230133,"791":0.02678530663251877,"792":-0.026102688163518906,"793":0.026931488886475563,"794":0.033248577266931534,"795":0.02903684973716736,"796":-0.01814691536128521,"797":0.025374677032232285,"798":-0.034464187920093536,"799":0.02036430686712265,"800":-0.019184768199920654,"801":-0.028419679030776024,"802":-0.03232996538281441,"803":-0.01943819783627987,"804":0.01565253734588623,"805":-0.008447305299341679,"806":-0.005020635202527046,"807":-0.030118100345134735,"808":0.013159029185771942,"809":0.014741213992238045,"810":-0.03483676165342331,"811":-0.010149268433451653}},"hiddenLayers":[{"inputMatrix":{"rows":20,"columns":28,"weights":{"0":0.7625318169593811,"1":-4.278243064880371,"2":-1.108444094657898,"3":-2.5012338161468506,"4":2.9041192531585693,"5":-0.21368801593780518,"6":3.3249876499176025,"7":1.1769014596939087,"8":-0.5037866234779358,"9":3.152022361755371,"10":1.2813969850540161,"11":1.1300108432769775,"12":-0.735823929309845,"13":-0.7479662299156189,"14":0.1760338842868805,"15":1.5859218835830688,"16":0.7914924025535583,"17":1.2381322383880615,"18":-0.4559013247489929,"19":0.8761486411094666,"20":-3.9946844577789307,"21":-1.1042506694793701,"22":0.22248981893062592,"23":-1.4645335674285889,"24":0.7514079213142395,"25":-0.4452495872974396,"26":-1.6467465162277222,"27":1.712479591369629,"28":-2.0604846477508545,"29":5.802829265594482,"30":-0.7615309357643127,"31":1.0758328437805176,"32":3.98964262008667,"33":2.744030237197876,"34":-1.2339123487472534,"35":-2.241870880126953,"36":-1.7749171257019043,"37":0.8618654012680054,"38":1.4476189613342285,"39":-4.131324291229248,"40":5.434678077697754,"41":-1.3357641696929932,"42":2.405871868133545,"43":-0.8428812623023987,"44":-2.6738357543945312,"45":-4.073962211608887,"46":-5.522735118865967,"47":5.267597675323486,"48":1.796958565711975,"49":1.9319742918014526,"50":-0.28377822041511536,"51":2.3477697372436523,"52":0.8270440697669983,"53":-4.419776439666748,"54":1.2169171571731567,"55":-0.9484715461730957,"56":1.5893888473510742,"57":-3.7046632766723633,"58":3.7542762756347656,"59":0.7644472122192383,"60":1.0969325304031372,"61":-3.7971715927124023,"62":-1.90394127368927,"63":-0.9662868976593018,"64":1.4878119230270386,"65":0.7987626791000366,"66":-0.48042941093444824,"67":2.7754065990448,"68":-2.323991298675537,"69":3.1583402156829834,"70":1.3288620710372925,"71":0.017647840082645416,"72":2.0401952266693115,"73":0.2633014917373657,"74":-2.075779676437378,"75":0.005178289022296667,"76":0.46538519859313965,"77":1.0932822227478027,"78":0.35080939531326294,"79":0.918857216835022,"80":-1.9704333543777466,"81":1.6983203887939453,"82":-0.5239189267158508,"83":0.12143006920814514,"84":3.5580127239227295,"85":3.0173046588897705,"86":-0.20422786474227905,"87":0.9038367867469788,"88":-1.976214051246643,"89":0.5406412482261658,"90":2.298199415206909,"91":0.8600260019302368,"92":0.12510764598846436,"93":0.7649373412132263,"94":1.5132806301116943,"95":-0.5158166289329529,"96":2.9110119342803955,"97":-1.9521819353103638,"98":-4.221561908721924,"99":-0.46567660570144653,"100":-4.073444366455078,"101":0.3469851315021515,"102":3.0527782440185547,"103":-0.6642330288887024,"104":1.06475031375885,"105":-1.0571876764297485,"106":-3.738093852996826,"107":-0.06798616051673889,"108":0.21553213894367218,"109":2.655970811843872,"110":1.2650179862976074,"111":0.0403120219707489,"112":0.023211577907204628,"113":-1.3489774465560913,"114":-0.7508945465087891,"115":1.4954439401626587,"116":1.912176489830017,"117":-1.814510703086853,"118":-0.8339804410934448,"119":-0.7343302965164185,"120":0.11833702027797699,"121":1.3273826837539673,"122":-1.9990113973617554,"123":-0.14320328831672668,"124":-0.9503094553947449,"125":-1.9941956996917725,"126":2.567444086074829,"127":1.9406042098999023,"128":2.1189236640930176,"129":3.3774423599243164,"130":-3.8013079166412354,"131":2.922166585922241,"132":0.9680191874504089,"133":0.4142614006996155,"134":0.23527458310127258,"135":0.23026014864444733,"136":0.44707372784614563,"137":-0.5792953968048096,"138":-2.6533215045928955,"139":0.09109599888324738,"140":2.2236406803131104,"141":-0.5540357828140259,"142":-0.580361545085907,"143":5.864859580993652,"144":-1.0259286165237427,"145":-3.0843722820281982,"146":0.6424639225006104,"147":-3.693333387374878,"148":1.7824547290802002,"149":-0.29098302125930786,"150":3.9702160358428955,"151":-4.308045864105225,"152":4.525821685791016,"153":0.3250868618488312,"154":-0.9479496479034424,"155":-0.040038224309682846,"156":-4.243777751922607,"157":0.3106950521469116,"158":0.9844895005226135,"159":0.5875085592269897,"160":3.179564952850342,"161":-0.6200307607650757,"162":1.5972356796264648,"163":0.618578314781189,"164":-3.210388660430908,"165":4.946544647216797,"166":-0.6819765567779541,"167":1.885249137878418,"168":1.546823263168335,"169":0.026657208800315857,"170":1.5484318733215332,"171":-1.699758768081665,"172":-0.7861480116844177,"173":-0.7091449499130249,"174":-1.9470049142837524,"175":1.5131487846374512,"176":-0.010949358344078064,"177":0.7451967000961304,"178":1.7832844257354736,"179":-3.5779664516448975,"180":-0.5864684581756592,"181":3.488053798675537,"182":-5.861226558685303,"183":-2.901768207550049,"184":0.6929959654808044,"185":0.3532447814941406,"186":2.479114532470703,"187":-1.032982349395752,"188":-2.405397891998291,"189":-1.0382708311080933,"190":0.46237146854400635,"191":0.9122008681297302,"192":1.122222900390625,"193":2.9152612686157227,"194":1.1760835647583008,"195":-3.9943745136260986,"196":-3.0912084579467773,"197":-2.497189998626709,"198":-0.9792160391807556,"199":-2.659726619720459,"200":1.2429946660995483,"201":-4.0377726554870605,"202":1.1434788703918457,"203":-0.6817623972892761,"204":0.4304060935974121,"205":1.497897744178772,"206":1.175541639328003,"207":0.27800777554512024,"208":3.320742130279541,"209":1.9241995811462402,"210":-0.5763795375823975,"211":-0.6557509899139404,"212":-1.0643045902252197,"213":-5.399785041809082,"214":-0.3115942180156708,"215":-1.0063303709030151,"216":-3.0485472679138184,"217":-0.7878643274307251,"218":-1.8866971731185913,"219":-1.0357204675674438,"220":2.8001275062561035,"221":-1.2420146465301514,"222":3.4206061363220215,"223":-4.291414737701416,"224":1.4763827323913574,"225":-2.2920494079589844,"226":-3.2362639904022217,"227":-1.1195741891860962,"228":0.3428637385368347,"229":0.9260014891624451,"230":0.5818510055541992,"231":-2.6177055835723877,"232":-1.8793745040893555,"233":3.641991138458252,"234":3.298104763031006,"235":2.046147584915161,"236":1.0465219020843506,"237":-0.9719231128692627,"238":1.3785816431045532,"239":1.5958924293518066,"240":1.616273045539856,"241":3.068207263946533,"242":-1.8378082513809204,"243":0.5968773365020752,"244":0.5875456929206848,"245":2.348123073577881,"246":-0.2504050135612488,"247":-1.7505697011947632,"248":-1.74898362159729,"249":-0.4740573763847351,"250":-0.09653041511774063,"251":-0.24856366217136383,"252":0.41030433773994446,"253":-5.160439491271973,"254":-1.3058905601501465,"255":0.856735348701477,"256":3.9005987644195557,"257":-3.316354751586914,"258":3.702077627182007,"259":-1.1774460077285767,"260":1.6312358379364014,"261":2.9944024085998535,"262":1.4121551513671875,"263":-3.9940786361694336,"264":1.1996724605560303,"265":-1.2197755575180054,"266":0.7351599931716919,"267":1.095331072807312,"268":0.590743899345398,"269":-3.145735740661621,"270":-5.723989963531494,"271":-1.265105962753296,"272":-1.0382345914840698,"273":0.09411156177520752,"274":2.1613385677337646,"275":3.3307483196258545,"276":-0.09461287409067154,"277":2.6014304161071777,"278":1.8800081014633179,"279":-1.967704176902771,"280":1.2406431436538696,"281":1.0637567043304443,"282":2.1423499584198,"283":-1.476309061050415,"284":-1.182820200920105,"285":-0.12377336621284485,"286":-1.474492073059082,"287":-1.2750704288482666,"288":1.859507441520691,"289":2.170313835144043,"290":0.8469635248184204,"291":2.316812515258789,"292":-2.3947718143463135,"293":-1.677435040473938,"294":3.4970545768737793,"295":1.297806978225708,"296":-0.3658997714519501,"297":1.2644808292388916,"298":0.06694604456424713,"299":-0.7142519950866699,"300":-0.39160043001174927,"301":-0.1371452659368515,"302":0.074490487575531,"303":-3.176269054412842,"304":-0.0016370491357520223,"305":-4.980978012084961,"306":-3.5809998512268066,"307":1.450931191444397,"308":-3.2527108192443848,"309":4.74434232711792,"310":-1.8219072818756104,"311":0.16349107027053833,"312":-3.7566394805908203,"313":1.826321005821228,"314":-1.744041085243225,"315":-1.3239917755126953,"316":1.3266421556472778,"317":-0.2672533690929413,"318":-2.488675355911255,"319":-2.74880051612854,"320":1.123378038406372,"321":2.288501262664795,"322":1.5285876989364624,"323":0.7361325025558472,"324":-0.18854351341724396,"325":0.059036899358034134,"326":-1.1913782358169556,"327":1.6080375909805298,"328":3.529289722442627,"329":-1.8855823278427124,"330":-0.5232753157615662,"331":1.3872193098068237,"332":0.12943316996097565,"333":-1.568516492843628,"334":2.2926409244537354,"335":0.7168416380882263,"336":0.4681055247783661,"337":1.3004463911056519,"338":1.0976930856704712,"339":-0.44968700408935547,"340":-1.9431427717208862,"341":-0.8090847730636597,"342":-3.9119930267333984,"343":1.2539640665054321,"344":-0.17139491438865662,"345":-2.72705340385437,"346":0.3089093267917633,"347":-4.5445170402526855,"348":1.1775758266448975,"349":-1.6674129962921143,"350":1.2313977479934692,"351":-0.8318183422088623,"352":0.6321978569030762,"353":-0.1540231853723526,"354":2.898437738418579,"355":6.857940673828125,"356":0.4943574368953705,"357":0.41274750232696533,"358":-1.8320939540863037,"359":1.8662656545639038,"360":-2.3760945796966553,"361":-2.7162435054779053,"362":2.2910001277923584,"363":-0.1720816045999527,"364":2.013535737991333,"365":3.575404167175293,"366":-3.811631917953491,"367":-0.8226093649864197,"368":-0.5735992193222046,"369":0.2800235152244568,"370":0.09955526888370514,"371":0.4087200462818146,"372":1.3096048831939697,"373":0.13896282017230988,"374":-0.17320942878723145,"375":-1.8483272790908813,"376":2.213226556777954,"377":2.5759291648864746,"378":-3.952282428741455,"379":-1.7431583404541016,"380":-1.8639689683914185,"381":0.7126134634017944,"382":0.5331745743751526,"383":2.871598958969116,"384":0.4945688545703888,"385":1.821869969367981,"386":-0.9090622663497925,"387":-0.4573880434036255,"388":2.0392050743103027,"389":2.23128604888916,"390":2.008950710296631,"391":-0.12078969180583954,"392":0.22100543975830078,"393":0.9326629042625427,"394":-0.901251494884491,"395":1.2571229934692383,"396":-0.3231654167175293,"397":1.1792341470718384,"398":-0.2898481488227844,"399":-0.477885365486145,"400":4.042959690093994,"401":1.7972228527069092,"402":2.8217825889587402,"403":1.4575048685073853,"404":2.96394944190979,"405":2.821857452392578,"406":-1.297758936882019,"407":-1.0764762163162231,"408":-1.2286237478256226,"409":-3.8790225982666016,"410":1.7408111095428467,"411":-2.543452024459839,"412":-2.9640254974365234,"413":1.0382658243179321,"414":2.0917904376983643,"415":0.08934479206800461,"416":1.6868289709091187,"417":6.37330436706543,"418":0.6994141936302185,"419":0.5926343202590942,"420":0.8477345108985901,"421":2.162238836288452,"422":-4.7387847900390625,"423":-0.2274731993675232,"424":-3.1559500694274902,"425":0.07172387838363647,"426":-1.4728981256484985,"427":0.2022118866443634,"428":0.5466842651367188,"429":3.3560140132904053,"430":0.4661779999732971,"431":-1.4341691732406616,"432":-1.4091013669967651,"433":-3.1475918292999268,"434":1.9231654405593872,"435":4.064024448394775,"436":-2.2137348651885986,"437":4.272127628326416,"438":1.7185125350952148,"439":1.1534154415130615,"440":-3.856623888015747,"441":0.9110394716262817,"442":2.175206422805786,"443":0.0766180083155632,"444":0.6885440349578857,"445":-2.353705644607544,"446":-1.655234456062317,"447":-0.3423917889595032,"448":0.18306605517864227,"449":2.0403170585632324,"450":-0.8157118558883667,"451":2.3668417930603027,"452":0.6356983184814453,"453":-1.0101938247680664,"454":-1.8711450099945068,"455":-0.9839897155761719,"456":0.583593487739563,"457":2.3593358993530273,"458":-2.032991886138916,"459":1.9883217811584473,"460":-4.3743977546691895,"461":1.9578900337219238,"462":1.3804298639297485,"463":0.27439215779304504,"464":1.2172231674194336,"465":0.5032951235771179,"466":-1.0136115550994873,"467":2.2031307220458984,"468":1.5237553119659424,"469":-0.2594911754131317,"470":2.178496837615967,"471":0.4379459321498871,"472":-4.82600212097168,"473":-1.3055620193481445,"474":-3.4581031799316406,"475":0.6066935062408447,"476":-3.249129295349121,"477":5.851874828338623,"478":-1.483188509941101,"479":0.0968320295214653,"480":2.5256991386413574,"481":2.9262290000915527,"482":0.19314855337142944,"483":-0.7369586825370789,"484":1.3482725620269775,"485":6.945958137512207,"486":-2.2225959300994873,"487":-0.6050969958305359,"488":-2.234013795852661,"489":-1.5460261106491089,"490":-0.3949275612831116,"491":0.2612666189670563,"492":-3.791769027709961,"493":0.9287844896316528,"494":-3.1565561294555664,"495":0.6917353868484497,"496":3.5470802783966064,"497":4.668944835662842,"498":5.018011093139648,"499":2.341282367706299,"500":6.08976936340332,"501":5.276401519775391,"502":-0.05940227955579758,"503":0.15719455480575562,"504":-3.3754537105560303,"505":-1.3286662101745605,"506":-2.146278142929077,"507":-0.04789677634835243,"508":0.7663875818252563,"509":3.8507282733917236,"510":1.732688307762146,"511":3.226646661758423,"512":0.2041756957769394,"513":1.6997064352035522,"514":-3.3315465450286865,"515":-4.1660895347595215,"516":2.686748743057251,"517":-0.8145275115966797,"518":1.4780691862106323,"519":-0.16927297413349152,"520":-0.6334398984909058,"521":-1.4528720378875732,"522":-5.001364231109619,"523":6.4466986656188965,"524":2.494678020477295,"525":-1.1282166242599487,"526":-3.530880928039551,"527":-2.059788465499878,"528":3.190347671508789,"529":-2.2714874744415283,"530":-0.8712092041969299,"531":-0.5893141627311707,"532":-1.1221102476119995,"533":-2.414743423461914,"534":-0.5964909791946411,"535":0.5877481698989868,"536":-0.5020303130149841,"537":-0.9155089855194092,"538":-2.4430017471313477,"539":0.5789809823036194,"540":-0.9853591918945312,"541":2.375532388687134,"542":0.21837323904037476,"543":0.7261767387390137,"544":-1.580361008644104,"545":-2.8008952140808105,"546":2.672619581222534,"547":2.291832208633423,"548":0.4100993871688843,"549":1.0272157192230225,"550":-1.7587445974349976,"551":2.105933666229248,"552":-0.06968480348587036,"553":1.1796233654022217,"554":0.05127323418855667,"555":2.8208343982696533,"556":-4.364049911499023,"557":-2.8357510566711426,"558":-1.146397590637207,"559":-0.5623659491539001}},"inputHidden":{"rows":20,"columns":20,"weights":{"0":0.13758417963981628,"1":-2.03092098236084,"2":0.7266354560852051,"3":5.224471092224121,"4":2.49352765083313,"5":3.3939313888549805,"6":-1.0747654438018799,"7":-2.081087589263916,"8":3.8378541469573975,"9":-0.7056647539138794,"10":-6.125012397766113,"11":-2.147274971008301,"12":-2.1155128479003906,"13":-3.723862648010254,"14":-2.8488094806671143,"15":-1.6645132303237915,"16":-2.0273962020874023,"17":-0.9680529236793518,"18":-3.910515308380127,"19":1.1591501235961914,"20":5.285111904144287,"21":3.7882649898529053,"22":2.142260789871216,"23":-4.334470748901367,"24":-3.7869327068328857,"25":0.341066837310791,"26":4.729946613311768,"27":-3.6440834999084473,"28":0.2617729902267456,"29":0.36531487107276917,"30":0.6295279860496521,"31":-6.324977874755859,"32":-2.8565690517425537,"33":6.252424240112305,"34":-0.34416866302490234,"35":-3.2568137645721436,"36":-2.9670569896698,"37":-3.232961416244507,"38":-1.3111999034881592,"39":0.19976896047592163,"40":-3.152157783508301,"41":-3.2716054916381836,"42":-5.503318786621094,"43":-6.971747398376465,"44":1.2603837251663208,"45":8.69660758972168,"46":-2.218421697616577,"47":-3.5239779949188232,"48":1.7787960767745972,"49":-7.15099573135376,"50":6.561067581176758,"51":-3.058032751083374,"52":4.859523773193359,"53":2.5054168701171875,"54":6.655577659606934,"55":-4.868622779846191,"56":-4.147522449493408,"57":-0.16802270710468292,"58":-1.5876193046569824,"59":1.4586634635925293,"60":0.7534794807434082,"61":0.5260107517242432,"62":-1.068017601966858,"63":4.488055229187012,"64":0.32018378376960754,"65":-1.1319025754928589,"66":2.3322417736053467,"67":0.32002121210098267,"68":-3.454611301422119,"69":-3.761168956756592,"70":-0.22956889867782593,"71":-0.03732573613524437,"72":-0.5647594332695007,"73":-3.4971046447753906,"74":-2.843188524246216,"75":2.4009206295013428,"76":0.7625741362571716,"77":-3.1191084384918213,"78":-0.015060918405652046,"79":-1.7501190900802612,"80":0.06377767026424408,"81":-0.4570314586162567,"82":0.44503769278526306,"83":2.210707902908325,"84":1.2783445119857788,"85":-3.6108834743499756,"86":0.6648373007774353,"87":0.8980848789215088,"88":1.7946447134017944,"89":-1.031530499458313,"90":1.5628151893615723,"91":-0.87005215883255,"92":1.228387475013733,"93":-1.1161129474639893,"94":-2.59873366355896,"95":-0.49930644035339355,"96":1.2416672706604004,"97":1.8092097043991089,"98":-0.21927310526371002,"99":-2.3112714290618896,"100":-2.009557008743286,"101":-0.22460348904132843,"102":1.5052391290664673,"103":-0.10778521746397018,"104":1.4362094402313232,"105":-2.4648404121398926,"106":-0.28315961360931396,"107":0.5266917943954468,"108":-0.6871607303619385,"109":1.3000402450561523,"110":-0.6681535243988037,"111":-1.008657455444336,"112":2.329123020172119,"113":0.13174757361412048,"114":-0.6198369860649109,"115":-2.1183042526245117,"116":0.09228934347629547,"117":1.9474462270736694,"118":-1.8897019624710083,"119":-0.7789627909660339,"120":1.331349492073059,"121":0.8070165514945984,"122":-2.1003012657165527,"123":-0.5810819864273071,"124":1.360654592514038,"125":-1.0989890098571777,"126":1.1673260927200317,"127":-2.3344814777374268,"128":-0.4837088882923126,"129":-2.9248621463775635,"130":-0.23403306305408478,"131":0.4043523967266083,"132":-0.03657449781894684,"133":-1.2413862943649292,"134":-0.27349281311035156,"135":-2.125500440597534,"136":-1.1407030820846558,"137":-1.3570162057876587,"138":-0.36694931983947754,"139":0.4257650077342987,"140":0.9920194149017334,"141":4.473870277404785,"142":4.901350975036621,"143":0.10380131751298904,"144":-5.901126861572266,"145":2.5660665035247803,"146":-9.50682258605957,"147":1.0760619640350342,"148":-4.9640421867370605,"149":0.6162025332450867,"150":-3.001753568649292,"151":4.101626396179199,"152":3.6684608459472656,"153":5.277215480804443,"154":4.2355146408081055,"155":1.6562094688415527,"156":3.4233908653259277,"157":-4.932178497314453,"158":5.117473602294922,"159":1.865960955619812,"160":2.177903413772583,"161":-3.198112726211548,"162":0.6178569793701172,"163":-1.3880993127822876,"164":-2.7079596519470215,"165":2.092858076095581,"166":2.2889304161071777,"167":-1.11198091506958,"168":-0.6338058114051819,"169":-2.2324934005737305,"170":-0.7154446244239807,"171":-0.04974835366010666,"172":0.5004836320877075,"173":-0.43621572852134705,"174":-0.5097984671592712,"175":-0.784790575504303,"176":2.1670522689819336,"177":-5.295562267303467,"178":-0.19724541902542114,"179":0.48275211453437805,"180":-0.5697780847549438,"181":2.677537202835083,"182":2.232269287109375,"183":-2.5063729286193848,"184":1.6452239751815796,"185":-2.804166078567505,"186":4.102012634277344,"187":0.11748424172401428,"188":-0.9430713057518005,"189":1.7277346849441528,"190":2.2637581825256348,"191":1.360846996307373,"192":0.20513145625591278,"193":-1.0619102716445923,"194":1.2787641286849976,"195":-0.20367953181266785,"196":0.6167497634887695,"197":2.3512351512908936,"198":-2.5032217502593994,"199":-2.7819395065307617,"200":0.41203778982162476,"201":-0.3280637562274933,"202":1.0861363410949707,"203":0.21597588062286377,"204":-0.938530683517456,"205":1.4717278480529785,"206":1.9225828647613525,"207":0.5440028309822083,"208":-0.999789834022522,"209":2.537905693054199,"210":0.16778911650180817,"211":-2.1064300537109375,"212":-0.3090386986732483,"213":-1.3772636651992798,"214":0.003236893331632018,"215":-1.7478593587875366,"216":-1.816737174987793,"217":0.2632332742214203,"218":-0.8057962656021118,"219":0.7269417643547058,"220":2.657506227493286,"221":-1.0194337368011475,"222":3.299840211868286,"223":-1.0106627941131592,"224":0.9341831207275391,"225":-1.5172927379608154,"226":-2.2162935733795166,"227":2.7396388053894043,"228":2.3507649898529053,"229":2.4038543701171875,"230":4.314030170440674,"231":-0.5798325538635254,"232":0.035235967487096786,"233":-0.4237567186355591,"234":0.9539565443992615,"235":1.6294360160827637,"236":-1.067178726196289,"237":2.428985595703125,"238":-0.6326512694358826,"239":1.427769422531128,"240":-0.2533667981624603,"241":0.6322486996650696,"242":-0.040193911641836166,"243":0.48550930619239807,"244":-2.565310001373291,"245":2.316070795059204,"246":0.9021995067596436,"247":1.42771315574646,"248":0.9544757604598999,"249":2.1577141284942627,"250":3.974417209625244,"251":0.16666889190673828,"252":-4.540555477142334,"253":-1.9070370197296143,"254":-1.4484436511993408,"255":0.2876646816730499,"256":1.8657013177871704,"257":1.3305073976516724,"258":2.7074344158172607,"259":-0.9677963256835938,"260":-1.1878223419189453,"261":-1.970176100730896,"262":2.33992075920105,"263":1.2365641593933105,"264":2.3545081615448,"265":1.2414442300796509,"266":-1.2486683130264282,"267":-3.2677996158599854,"268":1.3634546995162964,"269":1.039070725440979,"270":0.6204902529716492,"271":-1.3290191888809204,"272":3.193070650100708,"273":0.7116389274597168,"274":0.21437378227710724,"275":-1.6247433423995972,"276":-2.574394464492798,"277":0.4847419559955597,"278":-0.37574705481529236,"279":2.161883592605591,"280":-1.5100359916687012,"281":-5.962717533111572,"282":4.083205223083496,"283":0.03389281406998634,"284":4.119096279144287,"285":-1.059965968132019,"286":1.0453085899353027,"287":0.30986353754997253,"288":4.437097549438477,"289":-0.2995835840702057,"290":-4.349839210510254,"291":-1.1298644542694092,"292":-0.364109069108963,"293":3.5741028785705566,"294":0.6282294392585754,"295":5.342822551727295,"296":-0.06633441895246506,"297":3.411238431930542,"298":-5.335851192474365,"299":2.3264753818511963,"300":0.8450815677642822,"301":0.49403396248817444,"302":-2.2974765300750732,"303":-3.203972816467285,"304":-0.7961335778236389,"305":0.1497175544500351,"306":-2.8541688919067383,"307":4.433557510375977,"308":-3.31417179107666,"309":-1.9801446199417114,"310":2.536038637161255,"311":0.02694109082221985,"312":-2.9838647842407227,"313":0.8305797576904297,"314":0.48864227533340454,"315":1.4514116048812866,"316":0.944415807723999,"317":-4.019799709320068,"318":2.0159270763397217,"319":-1.262091875076294,"320":1.932271122932434,"321":-0.28921768069267273,"322":-4.410527229309082,"323":7.659546375274658,"324":0.12510980665683746,"325":-2.155419111251831,"326":-1.098769187927246,"327":-3.8524274826049805,"328":1.8381645679473877,"329":1.720702052116394,"330":-1.419895887374878,"331":2.794337272644043,"332":2.3807075023651123,"333":0.045929916203022,"334":-1.8350402116775513,"335":-2.49314546585083,"336":1.3644826412200928,"337":1.6388038396835327,"338":-0.13086433708667755,"339":1.9696385860443115,"340":-3.990563154220581,"341":1.911625862121582,"342":-4.697396755218506,"343":6.8816375732421875,"344":1.1988255977630615,"345":-2.480015516281128,"346":2.1902823448181152,"347":6.209401607513428,"348":-4.114904880523682,"349":0.5002716183662415,"350":-3.573315382003784,"351":-2.1398725509643555,"352":7.055907726287842,"353":-0.47994178533554077,"354":-7.796861171722412,"355":2.3885438442230225,"356":1.7161738872528076,"357":1.0206557512283325,"358":2.893050193786621,"359":-2.597693681716919,"360":-0.16226229071617126,"361":-2.061481475830078,"362":1.333510398864746,"363":-0.329387903213501,"364":-0.15305565297603607,"365":-2.1896681785583496,"366":-4.046722888946533,"367":0.02257353812456131,"368":6.777866363525391,"369":1.906625747680664,"370":2.341048002243042,"371":-1.6735938787460327,"372":-1.6875407695770264,"373":1.614514708518982,"374":-2.658656358718872,"375":0.2642066776752472,"376":-1.6517051458358765,"377":5.7236104011535645,"378":2.84563946723938,"379":1.344043493270874,"380":3.4693591594696045,"381":4.602203845977783,"382":-2.652501106262207,"383":3.3401763439178467,"384":1.3978439569473267,"385":-3.8285653591156006,"386":-1.8886569738388062,"387":2.940830707550049,"388":-2.4133172035217285,"389":3.8677597045898438,"390":-5.6371870040893555,"391":5.6819047927856445,"392":-0.03189251571893692,"393":3.1362857818603516,"394":-2.7224769592285156,"395":0.954862117767334,"396":0.2905801236629486,"397":-4.29553747177124,"398":-1.051905632019043,"399":-2.7008814811706543}},"inputBias":{"rows":20,"columns":1,"weights":{"0":1.3707754611968994,"1":0.34312704205513,"2":1.2741036415100098,"3":0.9747520685195923,"4":-0.04133732244372368,"5":-0.5768107175827026,"6":1.8326871395111084,"7":2.1763715744018555,"8":-0.26886940002441406,"9":-0.721419632434845,"10":-0.10706771910190582,"11":-2.1463069915771484,"12":-0.2849823236465454,"13":-1.107839822769165,"14":-0.7606342434883118,"15":0.8004968166351318,"16":0.32070279121398926,"17":-0.21906663477420807,"18":-0.8358614444732666,"19":3.204914093017578}},"forgetMatrix":{"rows":20,"columns":28,"weights":{"0":2.7304322719573975,"1":-3.638476848602295,"2":0.10136649757623672,"3":4.91265869140625,"4":1.1512092351913452,"5":0.7624832987785339,"6":0.8204256296157837,"7":-0.17489121854305267,"8":1.89616858959198,"9":0.8995621800422668,"10":-0.8545892238616943,"11":2.5565297603607178,"12":0.5522190928459167,"13":2.002575397491455,"14":1.18623948097229,"15":-2.260711431503296,"16":4.033423900604248,"17":-0.7275860905647278,"18":-0.1704336255788803,"19":0.08178456872701645,"20":0.9178740382194519,"21":2.5081398487091064,"22":-3.5517797470092773,"23":-2.201828956604004,"24":-2.4909439086914062,"25":0.35051244497299194,"26":0.18448986113071442,"27":-0.5511232018470764,"28":0.7591704726219177,"29":1.970320224761963,"30":2.390503406524658,"31":-1.4662138223648071,"32":-2.71327805519104,"33":0.19097289443016052,"34":-0.33988311886787415,"35":-0.5432509183883667,"36":2.7314867973327637,"37":-2.5438737869262695,"38":-2.3728079795837402,"39":-0.15961022675037384,"40":-4.123455047607422,"41":-1.2883399724960327,"42":1.2228565216064453,"43":0.8373245596885681,"44":-0.24766911566257477,"45":1.7312028408050537,"46":0.1670486181974411,"47":-0.5313777327537537,"48":1.6403284072875977,"49":-0.4546276330947876,"50":-1.021560788154602,"51":0.0069634802639484406,"52":0.6291751265525818,"53":-2.4231717586517334,"54":-0.8328381776809692,"55":1.5582481622695923,"56":-2.3681375980377197,"57":0.14679694175720215,"58":0.5298565030097961,"59":1.4655739068984985,"60":0.35675930976867676,"61":-5.040202617645264,"62":2.7257766723632812,"63":0.5678619742393494,"64":-1.5568840503692627,"65":-0.2543242275714874,"66":-0.8561598062515259,"67":-1.4642891883850098,"68":0.4347131550312042,"69":2.902564287185669,"70":-0.7153194546699524,"71":-0.712916910648346,"72":-2.409193992614746,"73":-1.9425048828125,"74":-3.5424599647521973,"75":-2.163461923599243,"76":-0.34293586015701294,"77":1.9620907306671143,"78":0.8022728562355042,"79":0.7994675636291504,"80":1.3765997886657715,"81":3.468158006668091,"82":0.6660844683647156,"83":-1.8188599348068237,"84":-0.8755205869674683,"85":1.202257513999939,"86":-2.5041980743408203,"87":-1.0156769752502441,"88":0.15506769716739655,"89":-2.5178427696228027,"90":2.2805309295654297,"91":-0.6281964778900146,"92":1.9560043811798096,"93":2.207943916320801,"94":0.8872677087783813,"95":1.7448195219039917,"96":-1.5504597425460815,"97":0.37872514128685,"98":-1.9340325593948364,"99":1.6627296209335327,"100":-1.8877092599868774,"101":-1.552789330482483,"102":-1.3878138065338135,"103":-0.8456293344497681,"104":-2.012406826019287,"105":-1.7232657670974731,"106":2.612142562866211,"107":-0.24419987201690674,"108":2.431213855743408,"109":0.0937051773071289,"110":1.2028743028640747,"111":-0.9417775273323059,"112":-0.005542423576116562,"113":2.6574878692626953,"114":-1.8177787065505981,"115":1.4423543214797974,"116":-2.5376548767089844,"117":0.38207003474235535,"118":-0.08838627487421036,"119":-0.0905083492398262,"120":0.0496247336268425,"121":0.7261733412742615,"122":-0.7172942161560059,"123":-2.134007215499878,"124":0.08575624972581863,"125":-0.015356717631220818,"126":0.8793317675590515,"127":4.238860130310059,"128":-4.407010555267334,"129":-1.0807541608810425,"130":-0.7059668302536011,"131":-2.528895139694214,"132":0.8162862062454224,"133":0.20219728350639343,"134":-0.3400317132472992,"135":0.2992434501647949,"136":0.8062059283256531,"137":2.746448278427124,"138":1.7023144960403442,"139":1.0632182359695435,"140":-3.2548980712890625,"141":0.672600507736206,"142":-0.824909508228302,"143":-0.3176378011703491,"144":3.6586110591888428,"145":0.920892596244812,"146":-2.8231112957000732,"147":0.2794823944568634,"148":2.9316296577453613,"149":0.928745448589325,"150":0.29471898078918457,"151":1.1113380193710327,"152":0.5865545868873596,"153":-0.43549275398254395,"154":1.678196668624878,"155":3.5139834880828857,"156":0.7624666690826416,"157":-4.861208438873291,"158":0.24483594298362732,"159":-0.5261699557304382,"160":-2.2310891151428223,"161":0.411811500787735,"162":1.457039475440979,"163":2.303215265274048,"164":-2.748324155807495,"165":-1.8117637634277344,"166":0.22396601736545563,"167":-0.9138563275337219,"168":0.901522696018219,"169":0.24005277454853058,"170":-2.2212259769439697,"171":3.399531126022339,"172":2.2604241371154785,"173":-1.5017107725143433,"174":-0.04427981376647949,"175":1.1018702983856201,"176":-0.17462024092674255,"177":0.6875053644180298,"178":-0.3414517045021057,"179":0.39315178990364075,"180":-1.9976119995117188,"181":-1.755678653717041,"182":-3.3805577754974365,"183":-2.5555498600006104,"184":-2.9008359909057617,"185":-1.4741718769073486,"186":0.6083899140357971,"187":0.07755579054355621,"188":1.1452621221542358,"189":1.6609857082366943,"190":4.270788192749023,"191":-0.3278536796569824,"192":-2.2946979999542236,"193":1.6571133136749268,"194":-0.09437787532806396,"195":3.396580457687378,"196":3.3809518814086914,"197":-1.635634183883667,"198":0.34601840376853943,"199":-2.34840989112854,"200":-1.401444435119629,"201":0.4816577732563019,"202":-0.7334487438201904,"203":0.6977545022964478,"204":0.8125526905059814,"205":-0.9481144547462463,"206":0.013282863423228264,"207":-1.576403260231018,"208":0.8034656047821045,"209":1.7049806118011475,"210":-2.3932836055755615,"211":-2.6800317764282227,"212":-1.879130244255066,"213":1.3924235105514526,"214":-2.1990339756011963,"215":0.7066267132759094,"216":1.3292044401168823,"217":-1.4573153257369995,"218":-1.196868658065796,"219":0.8256549835205078,"220":-2.4773075580596924,"221":0.5588720440864563,"222":1.0095551013946533,"223":4.00523567199707,"224":2.4671337604522705,"225":0.8529837727546692,"226":-0.9530438184738159,"227":-0.32838645577430725,"228":-0.4438246786594391,"229":0.5754601955413818,"230":2.842545986175537,"231":-1.2467026710510254,"232":-5.01649284362793,"233":1.5539326667785645,"234":1.1759835481643677,"235":3.1707305908203125,"236":0.6237417459487915,"237":1.6895288228988647,"238":2.391462564468384,"239":-0.5380627512931824,"240":0.6035130023956299,"241":-1.8775817155838013,"242":-1.7252131700515747,"243":-2.19352650642395,"244":2.5314114093780518,"245":3.110773801803589,"246":-0.5487496852874756,"247":-1.2080559730529785,"248":-1.6768782138824463,"249":2.4286088943481445,"250":-2.3928632736206055,"251":0.7469825744628906,"252":-1.174221396446228,"253":-0.40053874254226685,"254":1.3669333457946777,"255":-1.8226839303970337,"256":1.6733946800231934,"257":-1.4065698385238647,"258":3.8329215049743652,"259":-0.8570589423179626,"260":-0.010529633611440659,"261":1.8690786361694336,"262":-0.5406838059425354,"263":0.07309482991695404,"264":0.24966973066329956,"265":1.494118332862854,"266":0.8855085968971252,"267":2.0478005409240723,"268":-3.097210645675659,"269":-1.3489658832550049,"270":-0.7543724179267883,"271":-1.4958418607711792,"272":3.1536271572113037,"273":-0.7293661236763,"274":0.6843879222869873,"275":-1.3698246479034424,"276":1.5118359327316284,"277":1.3624156713485718,"278":2.1920840740203857,"279":0.21244484186172485,"280":1.5802313089370728,"281":-0.3196828365325928,"282":-0.3792567253112793,"283":1.2079709768295288,"284":-0.7008793950080872,"285":2.534733772277832,"286":-4.389633655548096,"287":0.23280461132526398,"288":-2.521533727645874,"289":-1.4622719287872314,"290":-3.236841917037964,"291":-0.03403038531541824,"292":-1.0388280153274536,"293":0.7876160740852356,"294":1.6706160306930542,"295":-1.3609322309494019,"296":4.226426601409912,"297":0.8411127328872681,"298":2.141730308532715,"299":1.2393078804016113,"300":1.1315335035324097,"301":-1.2547625303268433,"302":-2.220288038253784,"303":2.517422676086426,"304":-1.5270038843154907,"305":0.01899876818060875,"306":1.2954977750778198,"307":0.6030964851379395,"308":1.2313190698623657,"309":1.7707459926605225,"310":-1.6832678318023682,"311":1.7545769214630127,"312":1.3515477180480957,"313":1.9018033742904663,"314":1.3118913173675537,"315":1.8038026094436646,"316":-0.5121811628341675,"317":0.29561689496040344,"318":-0.9195135831832886,"319":-0.6477424502372742,"320":0.8302515149116516,"321":-0.7257550954818726,"322":-0.12069904804229736,"323":-1.2197778224945068,"324":1.0345779657363892,"325":1.886189341545105,"326":0.3500334918498993,"327":-0.1476820856332779,"328":2.8662149906158447,"329":-1.1778020858764648,"330":-0.4601006805896759,"331":0.9302956461906433,"332":0.18004684150218964,"333":-2.0850138664245605,"334":1.288489580154419,"335":0.21768979728221893,"336":-1.2907432317733765,"337":5.25888204574585,"338":-1.260728359222412,"339":-0.49088603258132935,"340":-3.3185853958129883,"341":1.8623486757278442,"342":-1.0787768363952637,"343":-0.2386767864227295,"344":-0.40219664573669434,"345":1.7548012733459473,"346":0.2896839678287506,"347":-4.141066074371338,"348":0.2628284990787506,"349":-0.11548720300197601,"350":1.674051284790039,"351":0.0592002309858799,"352":-2.5385191440582275,"353":2.527811288833618,"354":2.8581132888793945,"355":-0.295136958360672,"356":1.6200613975524902,"357":-0.6842138767242432,"358":0.07778732478618622,"359":-1.1297098398208618,"360":-0.7020764946937561,"361":0.4415625035762787,"362":-0.09986460953950882,"363":2.4630088806152344,"364":1.6857221126556396,"365":-1.1141787767410278,"366":0.2380424439907074,"367":-0.3968653082847595,"368":-0.7300072908401489,"369":-2.622467517852783,"370":0.00849966611713171,"371":-3.074759006500244,"372":-1.6336097717285156,"373":1.6979371309280396,"374":2.726186513900757,"375":-0.4634961485862732,"376":1.333620548248291,"377":-0.6763855814933777,"378":1.654746413230896,"379":3.6401591300964355,"380":0.06533853709697723,"381":1.869384765625,"382":0.1620405912399292,"383":-2.15482497215271,"384":-1.3205920457839966,"385":-1.3740051984786987,"386":2.3949179649353027,"387":-1.0706069469451904,"388":-2.9844560623168945,"389":-2.178633689880371,"390":-0.14284460246562958,"391":0.2527438700199127,"392":-3.339310646057129,"393":-3.0927932262420654,"394":-1.3772221803665161,"395":-1.0024585723876953,"396":1.3064854145050049,"397":1.483333706855774,"398":4.228386878967285,"399":0.9973235130310059,"400":-2.841461181640625,"401":-0.885434627532959,"402":-0.8502717614173889,"403":-1.917547345161438,"404":2.726776361465454,"405":0.1927465796470642,"406":-0.10876365005970001,"407":0.14206355810165405,"408":-2.3349313735961914,"409":-0.4751361906528473,"410":0.22976863384246826,"411":2.0934062004089355,"412":-0.812701404094696,"413":3.089421033859253,"414":-3.350116491317749,"415":1.0201377868652344,"416":2.8243558406829834,"417":-2.2191321849823,"418":-0.851171612739563,"419":0.2394866794347763,"420":-1.1902812719345093,"421":-1.2606849670410156,"422":1.7804142236709595,"423":1.5138858556747437,"424":-0.03261667862534523,"425":-4.408023357391357,"426":0.32672229409217834,"427":-1.13356351852417,"428":-3.647996425628662,"429":1.1911091804504395,"430":1.0237977504730225,"431":1.3762773275375366,"432":-3.4376332759857178,"433":-1.655180811882019,"434":4.506389141082764,"435":3.7792441844940186,"436":0.5976743698120117,"437":-0.6397063732147217,"438":0.06721288710832596,"439":0.019628040492534637,"440":0.7833012938499451,"441":-2.0628106594085693,"442":-2.7849669456481934,"443":0.3809467554092407,"444":-0.42300230264663696,"445":-2.057436227798462,"446":1.869847297668457,"447":-1.4371870756149292,"448":0.1958332508802414,"449":0.11168429255485535,"450":-0.1553153097629547,"451":-0.908957302570343,"452":1.637741208076477,"453":3.8134849071502686,"454":-0.271133691072464,"455":3.4264461994171143,"456":-0.6175030469894409,"457":-1.557452917098999,"458":-2.0110280513763428,"459":-3.8882946968078613,"460":-1.3997067213058472,"461":-2.0146920680999756,"462":1.4817670583724976,"463":1.156090259552002,"464":-1.4370423555374146,"465":0.06136460229754448,"466":-3.2738022804260254,"467":3.260310173034668,"468":1.110350251197815,"469":0.29703348875045776,"470":0.18487338721752167,"471":1.0173280239105225,"472":-0.3869090676307678,"473":0.8414979577064514,"474":0.9257796406745911,"475":-1.0427167415618896,"476":1.1068336963653564,"477":3.268259286880493,"478":-3.771491765975952,"479":0.553821861743927,"480":-2.24104380607605,"481":1.0599020719528198,"482":-4.617070198059082,"483":-1.7692337036132812,"484":0.6023603081703186,"485":0.9937296509742737,"486":-0.5678340792655945,"487":1.437497615814209,"488":-1.5993142127990723,"489":-4.03413724899292,"490":1.6035490036010742,"491":1.9210389852523804,"492":-2.1289925575256348,"493":0.8818207383155823,"494":2.556674003601074,"495":-1.3792802095413208,"496":0.6336206793785095,"497":2.9039721488952637,"498":0.0577283538877964,"499":-1.4873265027999878,"500":0.2534506916999817,"501":-2.9816665649414062,"502":-1.9709899425506592,"503":2.5300447940826416,"504":0.6728629469871521,"505":3.0192711353302,"506":-4.483207702636719,"507":0.19152408838272095,"508":0.7435478568077087,"509":0.7840580940246582,"510":-1.2832235097885132,"511":0.372361421585083,"512":-0.0021799374371767044,"513":1.9642951488494873,"514":0.3173644244670868,"515":-5.78284215927124,"516":1.758806586265564,"517":2.0694336891174316,"518":-2.694864273071289,"519":0.22676439583301544,"520":-0.7707012891769409,"521":2.0535380840301514,"522":-0.9622113108634949,"523":-0.2668970823287964,"524":0.4487093687057495,"525":-0.22171223163604736,"526":0.2862474322319031,"527":-0.8763765096664429,"528":2.376727342605591,"529":0.8503579497337341,"530":-0.9024783372879028,"531":-0.7444527745246887,"532":-0.15382611751556396,"533":-0.4941544532775879,"534":1.4164783954620361,"535":0.08537374436855316,"536":1.3980340957641602,"537":0.8816041946411133,"538":-0.9725740551948547,"539":2.0275042057037354,"540":0.13381347060203552,"541":-4.829006671905518,"542":0.5358640551567078,"543":-2.2662224769592285,"544":2.133852958679199,"545":1.7874808311462402,"546":-3.5835037231445312,"547":-4.609731197357178,"548":1.1896657943725586,"549":-2.643937349319458,"550":0.2014230191707611,"551":-1.0114164352416992,"552":-2.186297655105591,"553":-1.736362338066101,"554":-0.1578858345746994,"555":2.033351182937622,"556":-2.4895577430725098,"557":0.5146498084068298,"558":3.12980055809021,"559":0.9129149317741394}},"forgetHidden":{"rows":20,"columns":20,"weights":{"0":1.4026042222976685,"1":2.1134650707244873,"2":0.7805321216583252,"3":-1.1190638542175293,"4":1.339717984199524,"5":-1.3575786352157593,"6":1.4879286289215088,"7":3.791034698486328,"8":0.06582862138748169,"9":-1.3443325757980347,"10":-4.6257758140563965,"11":2.530877113342285,"12":0.6405019164085388,"13":-1.4849793910980225,"14":1.5954056978225708,"15":2.948138952255249,"16":3.8274896144866943,"17":0.10919521003961563,"18":-0.32511651515960693,"19":0.3244161903858185,"20":0.42169785499572754,"21":-2.2480955123901367,"22":-2.799234390258789,"23":0.05837887525558472,"24":1.036681890487671,"25":0.14915242791175842,"26":0.7052996754646301,"27":1.5740859508514404,"28":-0.11698760092258453,"29":-2.246351957321167,"30":0.9846962094306946,"31":-1.0814499855041504,"32":1.4936115741729736,"33":-3.0190043449401855,"34":0.35653141140937805,"35":-0.6737860441207886,"36":1.2577505111694336,"37":-0.5414612889289856,"38":-1.4951167106628418,"39":0.0061064474284648895,"40":0.8750242590904236,"41":2.7556378841400146,"42":-0.1800210177898407,"43":1.5249227285385132,"44":-1.1898634433746338,"45":-1.7175337076187134,"46":0.7932659387588501,"47":0.6542132496833801,"48":1.2111117839813232,"49":-4.933643341064453,"50":0.7882344722747803,"51":-4.275652885437012,"52":-1.79872465133667,"53":1.714280128479004,"54":0.5144354104995728,"55":2.7047228813171387,"56":-2.1968204975128174,"57":-2.31593656539917,"58":-0.1427597850561142,"59":-1.2004574537277222,"60":-3.451397657394409,"61":-1.7765640020370483,"62":0.4153085947036743,"63":-2.0019729137420654,"64":-0.4920547902584076,"65":1.3676921129226685,"66":0.005659969989210367,"67":-2.94917893409729,"68":-1.1902296543121338,"69":-0.33624279499053955,"70":2.017923593521118,"71":-0.5732746124267578,"72":-3.623657464981079,"73":2.5272092819213867,"74":0.5422030091285706,"75":-2.655998706817627,"76":-1.2728559970855713,"77":-1.164207935333252,"78":1.2931631803512573,"79":3.861778974533081,"80":1.7096199989318848,"81":-0.8279545307159424,"82":-2.91628098487854,"83":1.2524887323379517,"84":-2.9143292903900146,"85":1.9565372467041016,"86":-0.8464140295982361,"87":0.11880867928266525,"88":-4.221081256866455,"89":-0.6269075274467468,"90":0.9715533256530762,"91":-0.9150192737579346,"92":-2.090611219406128,"93":1.7715532779693604,"94":-1.1657650470733643,"95":0.2564907670021057,"96":0.4506807029247284,"97":0.6351616382598877,"98":1.5024302005767822,"99":-1.2698267698287964,"100":-1.3472506999969482,"101":-3.5869529247283936,"102":-0.8344258069992065,"103":-0.7528421878814697,"104":1.4476386308670044,"105":2.634615898132324,"106":-0.3321658968925476,"107":0.38990646600723267,"108":3.6407604217529297,"109":1.9927256107330322,"110":-1.2454745769500732,"111":3.3110930919647217,"112":-3.2706472873687744,"113":0.8865000605583191,"114":-0.8351894021034241,"115":1.108927607536316,"116":0.5059144496917725,"117":0.4408171474933624,"118":-1.8371001482009888,"119":1.2139923572540283,"120":2.2712695598602295,"121":0.10535351186990738,"122":-0.20150062441825867,"123":3.1492502689361572,"124":-8.391861915588379,"125":0.4440516531467438,"126":-1.8919252157211304,"127":1.265803575515747,"128":-1.9523160457611084,"129":-0.5028104782104492,"130":-2.83830189704895,"131":0.24722567200660706,"132":-1.000382900238037,"133":-1.506669521331787,"134":-1.975400686264038,"135":2.164243698120117,"136":0.08182816207408905,"137":0.9480997323989868,"138":0.944669246673584,"139":-1.3179409503936768,"140":-0.6219305396080017,"141":0.760729968547821,"142":-1.5561151504516602,"143":0.16269955039024353,"144":2.111009120941162,"145":0.36828815937042236,"146":0.6263868808746338,"147":4.453012943267822,"148":0.8491004705429077,"149":-0.45647624135017395,"150":1.370785117149353,"151":1.5353446006774902,"152":-0.5063199400901794,"153":-1.7687584161758423,"154":1.4450302124023438,"155":-0.08004242181777954,"156":-2.6779918670654297,"157":-1.2469569444656372,"158":-0.03484662249684334,"159":-1.2363942861557007,"160":-2.304504156112671,"161":3.0049033164978027,"162":4.648122787475586,"163":4.531719207763672,"164":4.505001544952393,"165":-1.6536283493041992,"166":0.06356947124004364,"167":-3.319535255432129,"168":0.10316522419452667,"169":4.060159206390381,"170":-3.1541225910186768,"171":3.6154627799987793,"172":2.9863829612731934,"173":-1.948929786682129,"174":-3.0402255058288574,"175":-0.14120401442050934,"176":4.256538391113281,"177":-0.770011305809021,"178":-0.41585975885391235,"179":-0.4000236988067627,"180":1.3186993598937988,"181":0.4894762635231018,"182":-1.9423426389694214,"183":2.9421839714050293,"184":1.6220190525054932,"185":-2.7825751304626465,"186":0.26424703001976013,"187":0.7066770195960999,"188":-0.0049666427075862885,"189":0.8243515491485596,"190":-1.5531835556030273,"191":1.695255994796753,"192":1.9108827114105225,"193":0.2905544340610504,"194":1.188825011253357,"195":1.3993186950683594,"196":-0.11340560019016266,"197":1.652897596359253,"198":0.6290874481201172,"199":-0.34620872139930725,"200":0.5399464964866638,"201":3.650108575820923,"202":0.1918453574180603,"203":-0.015857873484492302,"204":-0.22354182600975037,"205":1.547817349433899,"206":2.4292261600494385,"207":0.30940133333206177,"208":-1.6502671241760254,"209":1.4012901782989502,"210":5.264005661010742,"211":-3.5298006534576416,"212":2.991590738296509,"213":-1.3060966730117798,"214":0.2988346219062805,"215":0.7685258984565735,"216":-1.3082646131515503,"217":-1.1256762742996216,"218":2.2039499282836914,"219":-3.8348803520202637,"220":-0.018593307584524155,"221":0.5937624573707581,"222":-0.745699942111969,"223":1.7111570835113525,"224":-0.43237608671188354,"225":-0.9112324714660645,"226":-0.04499607905745506,"227":1.8110803365707397,"228":-0.36883309483528137,"229":-0.6850847005844116,"230":-2.5317676067352295,"231":2.1753571033477783,"232":0.537987232208252,"233":-0.6065546274185181,"234":-1.691281795501709,"235":0.9229863882064819,"236":2.3972387313842773,"237":0.8043485283851624,"238":-0.27321428060531616,"239":1.094099998474121,"240":-0.14959923923015594,"241":1.4606496095657349,"242":2.6377813816070557,"243":1.54129958152771,"244":1.0987294912338257,"245":-2.45637583732605,"246":1.012257695198059,"247":-1.2093064785003662,"248":2.3009488582611084,"249":-0.17265743017196655,"250":-2.6959285736083984,"251":2.3548810482025146,"252":-1.6594725847244263,"253":-1.7532334327697754,"254":0.6371694207191467,"255":-0.5981488823890686,"256":-0.34729620814323425,"257":0.7169612646102905,"258":-1.4292411804199219,"259":0.3869551718235016,"260":0.2542014718055725,"261":0.32835879921913147,"262":-0.25157251954078674,"263":-0.022469865158200264,"264":0.22601118683815002,"265":-0.4710530936717987,"266":0.8578474521636963,"267":-0.4825674295425415,"268":0.04810357466340065,"269":-0.9279171824455261,"270":-0.8740472197532654,"271":0.9851878881454468,"272":-3.518190860748291,"273":0.21923282742500305,"274":0.4333066940307617,"275":0.24384042620658875,"276":0.7535421848297119,"277":-0.9316981434822083,"278":0.9885938763618469,"279":1.180497169494629,"280":4.523148059844971,"281":-1.075097680091858,"282":3.3816635608673096,"283":0.12397866696119308,"284":2.115338087081909,"285":-1.4145113229751587,"286":-1.2449164390563965,"287":-0.2114628404378891,"288":1.5809261798858643,"289":-1.1212158203125,"290":-0.36552372574806213,"291":-1.6231456995010376,"292":-6.287842750549316,"293":0.5719389915466309,"294":-3.252509355545044,"295":3.4030940532684326,"296":2.1721363067626953,"297":1.463277816772461,"298":-0.27828851342201233,"299":1.8161062002182007,"300":2.7196247577667236,"301":3.5415432453155518,"302":2.826000452041626,"303":5.495181560516357,"304":-0.25267088413238525,"305":-5.005112171173096,"306":-2.448596239089966,"307":2.623398780822754,"308":0.5184773802757263,"309":-0.44693973660469055,"310":0.7707859873771667,"311":-1.0138956308364868,"312":-1.113072395324707,"313":-3.265749216079712,"314":0.373147577047348,"315":2.3578884601593018,"316":3.5524516105651855,"317":1.335236668586731,"318":1.956048607826233,"319":-2.8009033203125,"320":3.6973962783813477,"321":3.1156821250915527,"322":2.1848537921905518,"323":0.6574126482009888,"324":-1.064630389213562,"325":-4.643614768981934,"326":-3.289043664932251,"327":1.5347356796264648,"328":-2.692004919052124,"329":-5.119993209838867,"330":-1.0313663482666016,"331":2.9810216426849365,"332":-0.3395833671092987,"333":-1.8606173992156982,"334":-2.5906548500061035,"335":7.237661361694336,"336":3.448981761932373,"337":2.449187755584717,"338":3.004920244216919,"339":-2.758901596069336,"340":-0.6237227916717529,"341":1.3971494436264038,"342":-3.4331393241882324,"343":-4.4168243408203125,"344":0.2006898671388626,"345":-0.8114839196205139,"346":0.5429921746253967,"347":1.2847439050674438,"348":0.8956190347671509,"349":-1.0830109119415283,"350":0.6820351481437683,"351":-1.390615701675415,"352":4.7210798263549805,"353":2.4864561557769775,"354":4.383087635040283,"355":-2.3623087406158447,"356":-1.785856008529663,"357":1.7016326189041138,"358":-4.630684852600098,"359":1.2302521467208862,"360":1.2638769149780273,"361":-1.2995368242263794,"362":-0.8398093581199646,"363":-3.326080083847046,"364":-0.2302655279636383,"365":3.953855037689209,"366":-1.6271573305130005,"367":0.5377343893051147,"368":-2.2012298107147217,"369":-1.938090443611145,"370":-1.3041106462478638,"371":1.8715490102767944,"372":-0.7449683547019958,"373":-5.685479164123535,"374":1.905187726020813,"375":2.155107021331787,"376":0.32416194677352905,"377":0.012865439988672733,"378":-4.71799898147583,"379":-2.64721417427063,"380":1.4869134426116943,"381":-0.04889640212059021,"382":1.3363388776779175,"383":-0.16973651945590973,"384":0.33702749013900757,"385":-0.49634677171707153,"386":0.5810450315475464,"387":-0.3092074394226074,"388":1.4401179552078247,"389":-1.0717555284500122,"390":-0.928460419178009,"391":0.3663712739944458,"392":0.639833390712738,"393":-1.1574819087982178,"394":-1.1538153886795044,"395":2.465346336364746,"396":2.8154938220977783,"397":1.234268307685852,"398":-1.8157862424850464,"399":-2.1783933639526367}},"forgetBias":{"rows":20,"columns":1,"weights":{"0":0,"1":0,"2":0,"3":0,"4":0,"5":0,"6":0,"7":0,"8":0,"9":0,"10":0,"11":0,"12":0,"13":0,"14":0,"15":0,"16":0,"17":0,"18":0,"19":0}},"outputMatrix":{"rows":20,"columns":28,"weights":{"0":-2.005568265914917,"1":0.5067958235740662,"2":-2.6711537837982178,"3":-0.14952294528484344,"4":-1.1086598634719849,"5":-4.411558628082275,"6":0.6570945978164673,"7":-1.4444128274917603,"8":-1.6580764055252075,"9":-0.4630572497844696,"10":2.062281608581543,"11":-0.5496580004692078,"12":2.6944825649261475,"13":2.6324093341827393,"14":0.012961181811988354,"15":3.7070367336273193,"16":-3.4014012813568115,"17":-4.047489166259766,"18":-2.6614489555358887,"19":-0.45318466424942017,"20":0.5829505920410156,"21":-1.2209300994873047,"22":2.1373064517974854,"23":4.166475772857666,"24":-0.32519909739494324,"25":1.9074040651321411,"26":2.2543747425079346,"27":0.3335322141647339,"28":-2.0120208263397217,"29":0.08465640991926193,"30":-0.7345502972602844,"31":1.1105878353118896,"32":-2.439016819000244,"33":0.4655788838863373,"34":-1.2299306392669678,"35":3.4980685710906982,"36":-0.9967325925827026,"37":-2.7605483531951904,"38":-0.8284991979598999,"39":-1.981666088104248,"40":1.209978461265564,"41":1.7209407091140747,"42":2.87945818901062,"43":0.6974369883537292,"44":-0.9059245586395264,"45":2.8864049911499023,"46":1.989813208580017,"47":-1.3268529176712036,"48":3.884467363357544,"49":1.8341431617736816,"50":-1.4176082611083984,"51":1.9310959577560425,"52":-1.2102652788162231,"53":0.37530380487442017,"54":-1.1707502603530884,"55":3.8797926902770996,"56":0.3895118534564972,"57":-0.3430195450782776,"58":-2.385939121246338,"59":2.3798067569732666,"60":-0.3706528842449188,"61":-1.8106683492660522,"62":-1.6616413593292236,"63":-0.8549373745918274,"64":-0.20071609318256378,"65":0.7529556751251221,"66":0.5085715651512146,"67":-0.31130483746528625,"68":-1.3752495050430298,"69":-3.6836392879486084,"70":0.3800453543663025,"71":-1.0597411394119263,"72":-1.5887953042984009,"73":-2.92657470703125,"74":-1.2432527542114258,"75":0.447293758392334,"76":1.1501225233078003,"77":5.692395210266113,"78":-0.7043327689170837,"79":1.244403600692749,"80":-1.527971625328064,"81":-2.1809093952178955,"82":-2.476529121398926,"83":0.6874020099639893,"84":1.000219702720642,"85":2.019228219985962,"86":-1.1203398704528809,"87":3.3142740726470947,"88":-1.2097160816192627,"89":-2.2306079864501953,"90":-1.6928802728652954,"91":-0.6480584144592285,"92":0.05326240509748459,"93":0.48219534754753113,"94":-1.0373798608779907,"95":-4.149040699005127,"96":2.0802321434020996,"97":-2.1206576824188232,"98":-6.082556247711182,"99":0.7688015699386597,"100":-1.1629313230514526,"101":2.5845065116882324,"102":0.044349391013383865,"103":0.972667396068573,"104":-1.883427381515503,"105":-0.0014458619989454746,"106":5.682614326477051,"107":3.8364319801330566,"108":4.308484077453613,"109":1.0491669178009033,"110":2.158134698867798,"111":0.25772756338119507,"112":-1.8348658084869385,"113":0.7071927785873413,"114":0.494570791721344,"115":3.348600387573242,"116":-1.4536302089691162,"117":0.8563656210899353,"118":0.6904779672622681,"119":-0.7301763296127319,"120":0.7353784441947937,"121":-1.9149596691131592,"122":-1.0669128894805908,"123":-2.611144542694092,"124":0.4927500784397125,"125":0.692139208316803,"126":0.21138349175453186,"127":-0.5555809736251831,"128":-1.8618710041046143,"129":-1.6443074941635132,"130":-0.46236899495124817,"131":1.1066056489944458,"132":1.1450514793395996,"133":-6.448572635650635,"134":0.9462091326713562,"135":1.4918357133865356,"136":1.328390121459961,"137":0.7244748473167419,"138":2.1682565212249756,"139":0.3147069215774536,"140":-1.769811987876892,"141":-1.9121016263961792,"142":-1.749356985092163,"143":-0.08662885427474976,"144":1.858235478401184,"145":-3.269763708114624,"146":-0.9751494526863098,"147":-0.9885203242301941,"148":1.8695032596588135,"149":1.0963760614395142,"150":-1.6630899906158447,"151":-4.543158054351807,"152":0.7363113760948181,"153":-0.5163609385490417,"154":0.7855491638183594,"155":1.5997586250305176,"156":4.996490955352783,"157":-3.7305057048797607,"158":-0.6142993569374084,"159":-2.11685848236084,"160":-1.25716233253479,"161":-2.9120514392852783,"162":-1.5280659198760986,"163":1.0751734972000122,"164":-0.23225075006484985,"165":-1.2146795988082886,"166":-0.19894331693649292,"167":-1.9172875881195068,"168":-1.2360599040985107,"169":-3.6090550422668457,"170":3.088897943496704,"171":0.14251776039600372,"172":4.728882312774658,"173":-2.665311813354492,"174":-1.200771689414978,"175":1.9125010967254639,"176":0.5738839507102966,"177":0.2974016070365906,"178":0.782421350479126,"179":-1.0704621076583862,"180":2.0442590713500977,"181":-2.1159281730651855,"182":1.4190163612365723,"183":3.779989242553711,"184":0.5961057543754578,"185":-1.6025975942611694,"186":5.334438323974609,"187":-0.7695648670196533,"188":-1.1782974004745483,"189":-3.0835812091827393,"190":-0.5844809412956238,"191":-0.34706446528434753,"192":-4.149430751800537,"193":-2.156644344329834,"194":0.9850769639015198,"195":0.13943538069725037,"196":1.852368950843811,"197":0.8543539047241211,"198":5.353821754455566,"199":-1.5588942766189575,"200":-0.523991584777832,"201":-2.1674067974090576,"202":-1.4201604127883911,"203":2.0153465270996094,"204":2.7108888626098633,"205":-1.9535599946975708,"206":-1.5783569812774658,"207":0.3438688814640045,"208":-1.9396984577178955,"209":4.502211093902588,"210":1.2557642459869385,"211":3.2469770908355713,"212":1.517897367477417,"213":0.7617315053939819,"214":2.9692447185516357,"215":2.4052867889404297,"216":2.9205162525177,"217":-0.9738075137138367,"218":-1.958949327468872,"219":0.7268920540809631,"220":0.3792411684989929,"221":-0.16359513998031616,"222":2.834437131881714,"223":2.14770770072937,"224":-0.3433392643928528,"225":0.07369869202375412,"226":0.25324803590774536,"227":0.15258806943893433,"228":-1.6565048694610596,"229":-0.4891146123409271,"230":-0.1517418771982193,"231":-2.366905689239502,"232":-0.9137399196624756,"233":0.36315038800239563,"234":0.6504873633384705,"235":1.9678707122802734,"236":1.1617177724838257,"237":-0.41658255457878113,"238":2.490569829940796,"239":-0.3647366464138031,"240":-1.5769833326339722,"241":-0.4091956317424774,"242":-0.4540558159351349,"243":-1.2925262451171875,"244":-0.2530533969402313,"245":2.2293219566345215,"246":-0.4306085407733917,"247":1.240150809288025,"248":-3.377603054046631,"249":-0.9383618831634521,"250":0.5533751845359802,"251":0.6820483207702637,"252":-1.563200831413269,"253":1.0358563661575317,"254":-0.9055710434913635,"255":1.0272427797317505,"256":-0.23126687109470367,"257":1.1257647275924683,"258":-1.475894570350647,"259":-0.41814276576042175,"260":-1.6168383359909058,"261":-0.05629551783204079,"262":-0.40123307704925537,"263":0.7508528232574463,"264":2.3047921657562256,"265":0.5231547951698303,"266":2.43019700050354,"267":1.1409465074539185,"268":1.1301748752593994,"269":3.8959226608276367,"270":0.7213197946548462,"271":2.2133944034576416,"272":2.077937602996826,"273":-0.14399132132530212,"274":-1.8543376922607422,"275":-2.13253116607666,"276":0.49991375207901,"277":-0.1629992127418518,"278":-1.113224744796753,"279":2.8677549362182617,"280":-0.698321521282196,"281":2.044827461242676,"282":1.6687283515930176,"283":-2.3191587924957275,"284":-2.3960955142974854,"285":-0.047987207770347595,"286":-2.1485371589660645,"287":-1.1876059770584106,"288":1.1934046745300293,"289":-0.7009806632995605,"290":-0.530382513999939,"291":-0.4250210225582123,"292":-1.0628089904785156,"293":-1.9286860227584839,"294":4.410750865936279,"295":2.5689961910247803,"296":-1.8107424974441528,"297":3.283733606338501,"298":1.5695760250091553,"299":-1.5149091482162476,"300":0.9837856888771057,"301":0.09823247790336609,"302":-1.0397053956985474,"303":3.0601255893707275,"304":-0.16977275907993317,"305":-4.506491184234619,"306":4.580381870269775,"307":2.565920114517212,"308":0.22814436256885529,"309":2.20202374458313,"310":2.0959208011627197,"311":-0.8044193387031555,"312":1.9943103790283203,"313":-1.5208704471588135,"314":-0.08154556900262833,"315":-2.321587324142456,"316":-0.9041106700897217,"317":1.350944995880127,"318":1.8668839931488037,"319":-2.3412840366363525,"320":-1.2908116579055786,"321":1.0817862749099731,"322":1.9697587490081787,"323":1.2017979621887207,"324":-2.700606107711792,"325":-2.9056451320648193,"326":-0.784311830997467,"327":-0.6229789853096008,"328":-0.2562701106071472,"329":-0.14462341368198395,"330":0.5768022537231445,"331":-0.3040206730365753,"332":-3.445791006088257,"333":0.9756326675415039,"334":4.2160468101501465,"335":0.16942928731441498,"336":0.9118413329124451,"337":-3.4551963806152344,"338":0.8042231798171997,"339":0.9632446765899658,"340":4.968294143676758,"341":-2.031757116317749,"342":4.399266719818115,"343":-1.2241536378860474,"344":-2.5184011459350586,"345":-0.6416795253753662,"346":0.7011019587516785,"347":1.196576714515686,"348":0.7812012434005737,"349":0.6342038512229919,"350":-2.0778608322143555,"351":1.1962541341781616,"352":1.8913214206695557,"353":-2.5535383224487305,"354":-1.4923579692840576,"355":-0.9715069532394409,"356":4.289839267730713,"357":-1.5222030878067017,"358":1.5499786138534546,"359":1.8979907035827637,"360":1.2469738721847534,"361":0.4813888669013977,"362":3.7561161518096924,"363":-0.6804571747779846,"364":2.647637367248535,"365":-2.2321643829345703,"366":-0.5021318197250366,"367":0.3697485029697418,"368":0.0186616238206625,"369":1.7201391458511353,"370":-0.5068531036376953,"371":-0.9623035192489624,"372":-3.0933358669281006,"373":-0.17044253647327423,"374":-0.4944268763065338,"375":-0.04871125891804695,"376":1.030798077583313,"377":-0.7058554887771606,"378":-0.18197667598724365,"379":1.8024193048477173,"380":-1.4778621196746826,"381":-1.0506563186645508,"382":-2.335650682449341,"383":-0.039780035614967346,"384":6.220038414001465,"385":-0.4712234437465668,"386":-2.301793336868286,"387":-0.029537005349993706,"388":-1.2539995908737183,"389":-1.074339509010315,"390":1.5265244245529175,"391":0.9435356259346008,"392":-1.387012243270874,"393":3.437537908554077,"394":-3.502232551574707,"395":2.706009864807129,"396":-4.540403366088867,"397":-0.9096992015838623,"398":-0.22967304289340973,"399":-1.555771827697754,"400":1.672690510749817,"401":4.249958038330078,"402":0.8369230628013611,"403":-3.465925693511963,"404":-0.7799504399299622,"405":-1.249023199081421,"406":-0.3042204976081848,"407":1.957732081413269,"408":-6.55185604095459,"409":1.6089802980422974,"410":-1.7064342498779297,"411":-0.5420836210250854,"412":1.7960857152938843,"413":1.6801252365112305,"414":2.337806224822998,"415":0.14029425382614136,"416":0.25313451886177063,"417":1.0776758193969727,"418":1.1401299238204956,"419":2.3019158840179443,"420":-2.3410897254943848,"421":1.0001624822616577,"422":-3.422454833984375,"423":1.67670738697052,"424":-0.34973207116127014,"425":1.5384138822555542,"426":1.8916621208190918,"427":2.3793909549713135,"428":1.9330188035964966,"429":3.0129358768463135,"430":-4.2313666343688965,"431":-3.745701313018799,"432":-1.6241660118103027,"433":1.9778074026107788,"434":-1.7717946767807007,"435":-0.5678332448005676,"436":0.7030923366546631,"437":1.8089861869812012,"438":-1.8060857057571411,"439":3.752664566040039,"440":-0.3393929600715637,"441":-1.5578030347824097,"442":0.16415905952453613,"443":2.046804189682007,"444":4.6972527503967285,"445":0.6328731179237366,"446":3.586007833480835,"447":-5.507325649261475,"448":-0.15752188861370087,"449":3.2920408248901367,"450":-3.172773838043213,"451":-0.07383465766906738,"452":2.9095730781555176,"453":-1.43056058883667,"454":-0.899154543876648,"455":-2.116708755493164,"456":0.9773554801940918,"457":1.899043083190918,"458":-0.054498232901096344,"459":0.545157790184021,"460":-0.930962324142456,"461":-0.6108092665672302,"462":0.9464209675788879,"463":2.61039400100708,"464":-3.657623052597046,"465":0.27489030361175537,"466":-1.5866233110427856,"467":0.5727422833442688,"468":-2.8943192958831787,"469":-1.0843853950500488,"470":4.699908256530762,"471":-3.5305399894714355,"472":1.430719017982483,"473":0.6630012392997742,"474":-1.4162136316299438,"475":-1.474901795387268,"476":-0.6578102707862854,"477":1.4567571878433228,"478":2.429194211959839,"479":-2.04042649269104,"480":-2.0827512741088867,"481":2.22251558303833,"482":-3.340022325515747,"483":0.2940220832824707,"484":-0.6295449137687683,"485":-0.5059128403663635,"486":-0.6845614314079285,"487":0.14101502299308777,"488":-3.5067451000213623,"489":4.91128396987915,"490":-1.0879597663879395,"491":-4.752202987670898,"492":-1.3048789501190186,"493":-1.1103129386901855,"494":-0.8567056059837341,"495":-1.3491414785385132,"496":3.973696231842041,"497":-1.2752768993377686,"498":-1.9155691862106323,"499":1.1118327379226685,"500":0.24057254195213318,"501":1.3030869960784912,"502":-4.468082427978516,"503":1.0829414129257202,"504":1.7665387392044067,"505":-0.5223763585090637,"506":3.5755672454833984,"507":2.786463975906372,"508":-1.8998416662216187,"509":1.1751588582992554,"510":-3.026698589324951,"511":0.20977044105529785,"512":0.744767427444458,"513":-2.227637529373169,"514":1.4366204738616943,"515":0.48013272881507874,"516":-1.663024663925171,"517":0.7761571407318115,"518":-3.464794635772705,"519":-1.5491209030151367,"520":3.6622371673583984,"521":0.642285168170929,"522":4.134637832641602,"523":-1.7967108488082886,"524":-1.9548460245132446,"525":1.0222944021224976,"526":-0.562591016292572,"527":-1.768825650215149,"528":2.8226845264434814,"529":-0.7009259462356567,"530":-2.3847219944000244,"531":2.9553561210632324,"532":0.6884737610816956,"533":-1.2890503406524658,"534":0.8497142195701599,"535":-2.095989942550659,"536":-0.6194510459899902,"537":-3.232229232788086,"538":1.5901119709014893,"539":0.20468735694885254,"540":1.746954083442688,"541":3.7694554328918457,"542":0.34543952345848083,"543":-0.5304813981056213,"544":-0.6946017146110535,"545":1.977887749671936,"546":-1.0213819742202759,"547":3.280066728591919,"548":-3.188258647918701,"549":-3.1351492404937744,"550":-1.942991852760315,"551":-1.4500905275344849,"552":-2.134392499923706,"553":-0.2912554144859314,"554":-1.187342643737793,"555":-0.9118922352790833,"556":0.6773182153701782,"557":2.9584736824035645,"558":0.676765501499176,"559":0.28369131684303284}},"outputHidden":{"rows":20,"columns":20,"weights":{"0":-2.02811598777771,"1":2.103011131286621,"2":-0.09764046967029572,"3":1.092910647392273,"4":0.003760813968256116,"5":1.0454844236373901,"6":3.2202067375183105,"7":2.3730103969573975,"8":-1.5929372310638428,"9":-5.770826816558838,"10":0.018150558695197105,"11":2.372924327850342,"12":2.4074959754943848,"13":-0.4909592568874359,"14":-3.3383681774139404,"15":1.85366952419281,"16":1.128488302230835,"17":-1.6981779336929321,"18":-0.7816662192344666,"19":-0.4600015878677368,"20":4.729779243469238,"21":0.6770850419998169,"22":-4.044376373291016,"23":5.427929401397705,"24":2.3064157962799072,"25":-0.12303593009710312,"26":0.23049530386924744,"27":1.0029516220092773,"28":-2.8029696941375732,"29":-0.8569558262825012,"30":-5.348690032958984,"31":-1.820371389389038,"32":-4.779483795166016,"33":-0.9215783476829529,"34":-3.478454351425171,"35":-2.6755125522613525,"36":0.6393017172813416,"37":-0.3789582848548889,"38":-0.7504716515541077,"39":3.356961965560913,"40":-5.768737316131592,"41":3.1291005611419678,"42":1.7305834293365479,"43":1.3795299530029297,"44":-4.175349235534668,"45":7.996818542480469,"46":-4.981592178344727,"47":1.649091124534607,"48":-7.915320873260498,"49":0.6506491303443909,"50":2.4807369709014893,"51":-1.1427792310714722,"52":4.210446834564209,"53":-2.144685745239258,"54":6.4888787269592285,"55":-5.196730136871338,"56":-6.21953010559082,"57":-0.9324899315834045,"58":7.13738489151001,"59":-0.24395769834518433,"60":-1.5111267566680908,"61":-1.1174451112747192,"62":3.1860594749450684,"63":-0.8638899922370911,"64":1.5338283777236938,"65":0.9015191793441772,"66":-0.7649893760681152,"67":-1.636683464050293,"68":0.2112264335155487,"69":1.963883638381958,"70":1.1587104797363281,"71":-1.8941538333892822,"72":1.834302544593811,"73":-1.4156700372695923,"74":-2.9961748123168945,"75":0.060907941311597824,"76":1.5927754640579224,"77":2.256080150604248,"78":1.0419061183929443,"79":2.582123279571533,"80":1.354264497756958,"81":3.0961971282958984,"82":0.7088489532470703,"83":0.9914641976356506,"84":-2.3669509887695312,"85":1.4817222356796265,"86":-1.8469632863998413,"87":2.214535713195801,"88":4.731071949005127,"89":2.115783929824829,"90":-3.7830657958984375,"91":3.707078218460083,"92":0.4263824224472046,"93":-5.08188533782959,"94":-2.6173031330108643,"95":6.6198625564575195,"96":1.1462327241897583,"97":2.7661123275756836,"98":1.1172643899917603,"99":-2.7960076332092285,"100":-1.592236042022705,"101":-0.4237788915634155,"102":-2.8774361610412598,"103":1.9716209173202515,"104":0.08737816661596298,"105":4.0981221199035645,"106":-0.2750820517539978,"107":-0.2739405930042267,"108":2.995673894882202,"109":3.640220880508423,"110":1.417586326599121,"111":0.8449463844299316,"112":2.8304073810577393,"113":0.17899595201015472,"114":-0.31462112069129944,"115":0.8266105651855469,"116":-1.0597807168960571,"117":-0.693243682384491,"118":-1.9453898668289185,"119":0.2357216477394104,"120":-2.394416570663452,"121":2.009660482406616,"122":2.7975780963897705,"123":-5.069106101989746,"124":1.341756820678711,"125":4.8512654304504395,"126":-0.18087583780288696,"127":-1.6165814399719238,"128":-0.14010344445705414,"129":0.5803098678588867,"130":6.026398658752441,"131":1.0225975513458252,"132":-0.24518077075481415,"133":-4.000169277191162,"134":1.9763116836547852,"135":0.9975691437721252,"136":3.7378928661346436,"137":-0.8657336235046387,"138":3.3104989528656006,"139":0.18160755932331085,"140":-1.6092302799224854,"141":0.36510035395622253,"142":-7.727221488952637,"143":10.562159538269043,"144":-0.6738964915275574,"145":1.0455520153045654,"146":-1.468874454498291,"147":2.6173055171966553,"148":-11.410499572753906,"149":-2.573338031768799,"150":0.5120593905448914,"151":2.5118019580841064,"152":-1.5414025783538818,"153":1.782339334487915,"154":-4.175383567810059,"155":4.568775653839111,"156":13.168893814086914,"157":3.7883987426757812,"158":2.531355381011963,"159":-0.5609027743339539,"160":-0.8311095833778381,"161":2.3936426639556885,"162":-5.069869518280029,"163":9.292543411254883,"164":1.7736051082611084,"165":-3.4961578845977783,"166":0.6454360485076904,"167":1.7630640268325806,"168":-1.8015528917312622,"169":4.84305477142334,"170":2.382364273071289,"171":-16.11446762084961,"172":8.623801231384277,"173":3.5524885654449463,"174":-1.2458646297454834,"175":0.7637385725975037,"176":1.3775907754898071,"177":-2.0179715156555176,"178":3.933044195175171,"179":-9.37037181854248,"180":1.476036787033081,"181":0.435332328081131,"182":3.841909646987915,"183":-3.3863227367401123,"184":-1.2337653636932373,"185":2.724492311477661,"186":-0.7007855772972107,"187":-3.868382453918457,"188":-1.1425410509109497,"189":-1.5078470706939697,"190":0.6578001976013184,"191":-0.8214429616928101,"192":-6.9187469482421875,"193":-1.3337963819503784,"194":-0.5827492475509644,"195":-10.55863094329834,"196":-3.2728328704833984,"197":2.1064565181732178,"198":-1.6352548599243164,"199":-8.670248031616211,"200":-3.2344589233398438,"201":-0.874832808971405,"202":1.5490773916244507,"203":-0.726585865020752,"204":2.074814558029175,"205":-1.677350401878357,"206":0.021730616688728333,"207":-1.0707918405532837,"208":-2.782315969467163,"209":3.7828445434570312,"210":1.79081392288208,"211":-2.8333938121795654,"212":2.52958607673645,"213":-4.278964996337891,"214":1.1887141466140747,"215":1.7834596633911133,"216":-2.0140249729156494,"217":1.3213266134262085,"218":-3.21977162361145,"219":-4.289037227630615,"220":1.4381098747253418,"221":2.0193629264831543,"222":2.499504327774048,"223":4.18508768081665,"224":2.106584310531616,"225":-1.8848835229873657,"226":1.8123663663864136,"227":0.23442770540714264,"228":-0.9843927025794983,"229":-3.440633535385132,"230":-1.2334386110305786,"231":6.205282688140869,"232":-1.1273194551467896,"233":-2.4233832359313965,"234":-0.6679311990737915,"235":5.404636859893799,"236":4.221280574798584,"237":0.9596468210220337,"238":4.518533229827881,"239":-0.619551956653595,"240":0.35992342233657837,"241":-0.5106158256530762,"242":2.0902163982391357,"243":2.2497596740722656,"244":-1.8262165784835815,"245":-2.0349957942962646,"246":-2.0685744285583496,"247":1.1885945796966553,"248":0.44747450947761536,"249":1.1110397577285767,"250":2.821445941925049,"251":1.7361505031585693,"252":1.4836711883544922,"253":-1.7853431701660156,"254":-3.652996778488159,"255":4.0644073486328125,"256":0.10650046914815903,"257":-1.4775348901748657,"258":1.563659906387329,"259":3.108049154281616,"260":2.709627866744995,"261":7.706509590148926,"262":-6.619555473327637,"263":2.9101972579956055,"264":-2.5341529846191406,"265":-2.67918062210083,"266":8.580021858215332,"267":0.21801279485225677,"268":-1.7621394395828247,"269":-9.625926971435547,"270":1.1049762964248657,"271":0.2519078850746155,"272":-8.62556266784668,"273":-3.7864861488342285,"274":5.196024417877197,"275":-0.3918905556201935,"276":-2.975595474243164,"277":5.029393196105957,"278":3.5795176029205322,"279":-1.3056224584579468,"280":-3.4460361003875732,"281":3.0242080688476562,"282":-4.050710201263428,"283":3.255662202835083,"284":2.532003164291382,"285":-8.123551368713379,"286":-8.144407272338867,"287":10.446277618408203,"288":8.991171836853027,"289":-1.1791878938674927,"290":-1.176268458366394,"291":5.495267391204834,"292":-1.2253907918930054,"293":1.652580738067627,"294":1.834126591682434,"295":3.6797382831573486,"296":-6.148188591003418,"297":-1.8075543642044067,"298":-8.98425579071045,"299":4.603567600250244,"300":1.3808245658874512,"301":2.2030529975891113,"302":3.421731948852539,"303":3.4083704948425293,"304":-1.51676607131958,"305":-2.7368900775909424,"306":1.9072997570037842,"307":-4.228862285614014,"308":-1.6713091135025024,"309":-1.8569780588150024,"310":-0.44978299736976624,"311":1.3387514352798462,"312":-0.8702346682548523,"313":2.2626099586486816,"314":1.942618727684021,"315":3.6426103115081787,"316":2.8317031860351562,"317":3.1811375617980957,"318":0.707298994064331,"319":-2.6743037700653076,"320":1.4537229537963867,"321":-0.10183974355459213,"322":0.06282155960798264,"323":3.702939987182617,"324":1.4567723274230957,"325":-0.7951787114143372,"326":1.807517409324646,"327":-0.4920707941055298,"328":-2.6316189765930176,"329":-2.1524839401245117,"330":0.7117113471031189,"331":-2.7536842823028564,"332":1.5033944845199585,"333":0.5617755651473999,"334":0.8810842037200928,"335":-0.5765221118927002,"336":2.103487730026245,"337":-1.898578405380249,"338":0.6602527499198914,"339":-1.9574673175811768,"340":-1.0093419551849365,"341":-5.44564962387085,"342":0.8811089396476746,"343":2.6783604621887207,"344":-4.378056526184082,"345":-1.823769450187683,"346":-0.22393453121185303,"347":-3.058823347091675,"348":4.224534511566162,"349":0.693642258644104,"350":0.5535855293273926,"351":-0.5354422926902771,"352":-2.891822099685669,"353":4.726484775543213,"354":1.1787326335906982,"355":-2.7232916355133057,"356":-1.327933430671692,"357":0.9315671920776367,"358":-4.092207908630371,"359":-0.08106860518455505,"360":0.29387909173965454,"361":-5.814191818237305,"362":-5.461950302124023,"363":-6.206320762634277,"364":3.464040994644165,"365":1.883087396621704,"366":6.607357025146484,"367":-2.172300100326538,"368":3.1490626335144043,"369":-0.05812276527285576,"370":4.545860767364502,"371":-1.634782075881958,"372":1.1241748332977295,"373":-0.3917573094367981,"374":-4.498229503631592,"375":-5.056386947631836,"376":-4.135171413421631,"377":1.8515034914016724,"378":-0.6589360237121582,"379":0.1254982352256775,"380":-0.8514679074287415,"381":2.200442314147949,"382":3.2599358558654785,"383":3.124873399734497,"384":-3.503148078918457,"385":-1.4370390176773071,"386":-1.7410625219345093,"387":-1.6555012464523315,"388":-3.4896798133850098,"389":-2.4022445678710938,"390":-0.8398637175559998,"391":0.9620017409324646,"392":1.0008877515792847,"393":2.816504955291748,"394":3.606595993041992,"395":1.2060661315917969,"396":-0.8192477226257324,"397":-1.0119457244873047,"398":3.214883804321289,"399":1.3905887603759766}},"outputBias":{"rows":20,"columns":1,"weights":{"0":0.5695510506629944,"1":1.8027089834213257,"2":-0.8150185942649841,"3":-0.8121958374977112,"4":-1.1950966119766235,"5":-0.6769078373908997,"6":-0.17202651500701904,"7":0.867339015007019,"8":-0.5588827133178711,"9":-1.5043169260025024,"10":1.4311845302581787,"11":-3.219017744064331,"12":0.06383466720581055,"13":-0.922663152217865,"14":-0.18637914955615997,"15":2.1729893684387207,"16":0.8606113791465759,"17":-0.3521915376186371,"18":0.5473182797431946,"19":3.024423837661743}},"cellActivationMatrix":{"rows":20,"columns":28,"weights":{"0":-0.02202615514397621,"1":2.5847976207733154,"2":2.2326762676239014,"3":-0.47506532073020935,"4":-1.8071104288101196,"5":-0.01843699999153614,"6":-2.1928913593292236,"7":0.6027191877365112,"8":1.3885351419448853,"9":-1.8373827934265137,"10":-2.470122814178467,"11":-0.36623212695121765,"12":-1.4963459968566895,"13":-2.7371625900268555,"14":0.02799719013273716,"15":-1.9972162246704102,"16":-2.269599676132202,"17":-0.898851215839386,"18":-0.3088076710700989,"19":2.4552953243255615,"20":-1.1055610179901123,"21":-0.2569202482700348,"22":-1.8114122152328491,"23":0.4954671263694763,"24":0.6019662618637085,"25":-2.3634979724884033,"26":-0.770464301109314,"27":-0.6500124335289001,"28":-0.4342557489871979,"29":0.030008716508746147,"30":1.1554182767868042,"31":1.8425287008285522,"32":0.9506158828735352,"33":0.6341537833213806,"34":0.022701960057020187,"35":1.2161887884140015,"36":-2.245555877685547,"37":-1.2176835536956787,"38":0.8510141372680664,"39":-0.9045578241348267,"40":-1.0075023174285889,"41":-0.05100889876484871,"42":-1.3421353101730347,"43":-2.176239013671875,"44":0.9817798137664795,"45":0.4666135609149933,"46":-1.8563019037246704,"47":-0.7702624201774597,"48":-1.3502676486968994,"49":0.06115659698843956,"50":0.9061752557754517,"51":1.1859657764434814,"52":-0.9530844688415527,"53":1.3840402364730835,"54":-0.48890456557273865,"55":-0.13762208819389343,"56":-0.571809709072113,"57":-1.2037683725357056,"58":-0.37926623225212097,"59":0.44515782594680786,"60":1.2793431282043457,"61":-0.451627641916275,"62":-0.6686864495277405,"63":-1.5524263381958008,"64":0.9424446821212769,"65":0.172541081905365,"66":-0.022299088537693024,"67":1.2280551195144653,"68":0.19118894636631012,"69":-0.9868793487548828,"70":0.8932037949562073,"71":0.07112501561641693,"72":-0.5896493792533875,"73":0.3030315637588501,"74":-0.6638807654380798,"75":-0.6490650177001953,"76":0.2150609940290451,"77":2.259237766265869,"78":1.0075080394744873,"79":-1.251314401626587,"80":-2.063344955444336,"81":0.3540100157260895,"82":-1.0485706329345703,"83":-0.21749821305274963,"84":-0.572859525680542,"85":-1.3704794645309448,"86":-0.4669239819049835,"87":-0.7495555281639099,"88":0.7120152711868286,"89":-0.3234231472015381,"90":-0.13945119082927704,"91":-0.8507726788520813,"92":-0.05026217922568321,"93":0.8959062695503235,"94":0.55196613073349,"95":1.6848582029342651,"96":-0.8075783252716064,"97":-0.2868267595767975,"98":1.0381907224655151,"99":-0.12432482093572617,"100":1.0124213695526123,"101":1.1657618284225464,"102":0.6355164051055908,"103":-0.6270194053649902,"104":-1.0258784294128418,"105":1.509861946105957,"106":0.5941033363342285,"107":-0.7382928133010864,"108":0.692157506942749,"109":1.545210599899292,"110":-3.1466352939605713,"111":-0.37711071968078613,"112":0.4226751923561096,"113":-0.8404433727264404,"114":-0.29181554913520813,"115":0.06329958885908127,"116":0.9726700186729431,"117":0.42492660880088806,"118":-0.7573446035385132,"119":0.6729037761688232,"120":0.3597281277179718,"121":-1.0184035301208496,"122":-0.7721371054649353,"123":0.7732906341552734,"124":-0.6557058095932007,"125":-0.9982725977897644,"126":-0.426423579454422,"127":-1.3363656997680664,"128":2.618129253387451,"129":0.4348859488964081,"130":0.4956112802028656,"131":1.6604136228561401,"132":1.1245595216751099,"133":-0.0859038457274437,"134":-1.5568748712539673,"135":0.4147084653377533,"136":0.2903359830379486,"137":-0.14834041893482208,"138":-0.6671172380447388,"139":-0.07085917145013809,"140":2.624366521835327,"141":-1.4686442613601685,"142":-2.2360880374908447,"143":2.3451006412506104,"144":1.5172572135925293,"145":0.9689209461212158,"146":-2.2996699810028076,"147":-1.2793606519699097,"148":0.6515277028083801,"149":1.1801412105560303,"150":0.15571123361587524,"151":-0.8988549113273621,"152":1.474933385848999,"153":1.0619773864746094,"154":-1.0857454538345337,"155":1.8482147455215454,"156":2.028514862060547,"157":-0.8673592209815979,"158":0.5858144760131836,"159":-1.3431236743927002,"160":-0.7586550712585449,"161":0.3629290759563446,"162":2.592827796936035,"163":-0.5546543598175049,"164":-0.8887346386909485,"165":0.2128482460975647,"166":0.11997903138399124,"167":1.8055026531219482,"168":-0.640859842300415,